{
  "input_sequences": [],
  "inputs": [
    {
      "name": "node_0",
      "variables": [
        {
          "name": "variable_0",
          "offset": 0,
          "scale": 1
        },
        {
          "name": "variable_1",
          "offset": 0,
          "scale": 1
        },
        {
          "name": "variable_2",
          "offset": 0,
          "scale": 1
        },
        {
          "name": "variable_3",
          "offset": 0,
          "scale": 1
        },
        {
          "name": "variable_4",
          "offset": 0,
          "scale": 1
        },
        {
          "name": "variable_5",
          "offset": 0,
          "scale": 1
        },
        {
          "name": "variable_6",
          "offset": 0,
          "scale": 1
        },
        {
          "name": "variable_7",
          "offset": 0,
          "scale": 1
        },
        {
          "name": "variable_8",
          "offset": 0,
          "scale": 1
        }
      ]
    }
  ],
  "layers": [
    {
      "activation": "linear",
      "architecture": "dense",
      "bias": [
        0.43762296438217163,
        -0.4874551594257355,
        1.0072252750396729,
        1.0176321268081665,
        -0.22314581274986267,
        -1.7671338319778442,
        -8.302016258239746,
        -0.17092818021774292,
        -0.7425194382667542,
        4.244952201843262,
        1.4888033866882324,
        0.2128085196018219,
        -0.7889472842216492,
        -1.3089059591293335,
        0.787811279296875,
        -1.7130364179611206,
        -1.1520670652389526,
        2.2098381519317627,
        -6.3940205574035645,
        -6.336838245391846,
        -0.22211042046546936,
        1.1961212158203125,
        -1.8236021995544434,
        0.19756372272968292,
        -1.383454442024231,
        -0.5078660845756531,
        -0.5080879330635071,
        -3.745073080062866,
        -9.699814796447754,
        0.44389253854751587,
        -0.06709467619657516,
        -0.7949854731559753
      ],
      "weights": [
        1.303661584854126,
        0.052278775721788406,
        -0.35265418887138367,
        0.6203261017799377,
        1.250271201133728,
        -14.413507461547852,
        5.05892276763916,
        0.685527503490448,
        0.27841371297836304,
        1.7306113243103027,
        0.5155091285705566,
        -0.45835456252098083,
        -0.5463911294937134,
        1.2251800298690796,
        -13.56869888305664,
        4.29889440536499,
        -0.2809106707572937,
        -0.8555705547332764,
        0.9313589930534363,
        -1.021636962890625,
        0.05215650051832199,
        1.3447401523590088,
        0.6148405075073242,
        -6.605917453765869,
        3.7473554611206055,
        0.8449248671531677,
        1.2512738704681396,
        0.566211998462677,
        -1.0706102848052979,
        0.20064453780651093,
        1.5972312688827515,
        0.970464289188385,
        -5.851603984832764,
        3.688278913497925,
        0.5079872012138367,
        0.9514514803886414,
        0.7659247517585754,
        -1.3827626705169678,
        0.026223622262477875,
        0.5266904830932617,
        0.2124200165271759,
        1.0741761922836304,
        -0.17024902999401093,
        -0.10229915380477905,
        0.015298369340598583,
        2.7328779697418213,
        1.0110749006271362,
        -0.8238173127174377,
        -1.998956322669983,
        1.325879454612732,
        -15.722657203674316,
        4.4507365226745605,
        -1.3806415796279907,
        -2.022456645965576,
        3.559534788131714,
        0.18343858420848846,
        -10.616776466369629,
        5.3386359214782715,
        4.886225700378418,
        5.778681755065918,
        5.6266374588012695,
        12.537642478942871,
        -8.448311805725098,
        1.1235350370407104,
        0.6877672076225281,
        -0.33726218342781067,
        0.05599590018391609,
        1.155531883239746,
        -13.448655128479004,
        4.266328811645508,
        0.0379624143242836,
        -0.5191963315010071,
        -0.0453110970556736,
        0.4002206027507782,
        -0.0338096059858799,
        -0.22710247337818146,
        -0.03715045750141144,
        -0.35946041345596313,
        0.25713425874710083,
        0.05341204255819321,
        -0.4729885160923004,
        1.3008936643600464,
        0.1144338920712471,
        -4.785707473754883,
        7.523343563079834,
        -23.483327865600586,
        5.266322135925293,
        7.56488037109375,
        5.205000400543213,
        4.597423076629639,
        1.1426092386245728,
        -0.6914985775947571,
        0.06222726032137871,
        0.9328149557113647,
        0.5710758566856384,
        -8.284701347351074,
        4.338461399078369,
        1.2602654695510864,
        1.1928282976150513,
        -1.0440948009490967,
        0.37371310591697693,
        0.14032593369483948,
        1.9273462295532227,
        4.182973861694336,
        -2.7209525108337402,
        2.8991994857788086,
        0.5606023073196411,
        0.4308074116706848,
        -0.008256511762738228,
        0.4260154366493225,
        -0.019839320331811905,
        -0.31695088744163513,
        -0.01894191838800907,
        -0.38698822259902954,
        0.30882784724235535,
        -0.0627032071352005,
        -0.6927240490913391,
        -0.026161592453718185,
        0.1282789558172226,
        0.01739286631345749,
        0.02019997127354145,
        0.04368862509727478,
        0.7461531162261963,
        -1.5070513486862183,
        -0.2375960797071457,
        -1.2959567308425903,
        0.8499636054039001,
        -1.1667842864990234,
        0.08564431965351105,
        1.4309403896331787,
        0.7522244453430176,
        -5.651414394378662,
        3.3411154747009277,
        0.7038489580154419,
        1.1433385610580444,
        0.997098982334137,
        -2.065973997116089,
        -0.5095014572143555,
        1.7351030111312866,
        1.5040274858474731,
        2.762099027633667,
        -0.07275820523500443,
        0.856562077999115,
        -1.4856901168823242,
        -3.002511501312256,
        -3.184319257736206,
        0.21713100373744965,
        0.13474631309509277,
        2.27590274810791,
        -7.614917755126953,
        6.847031116485596,
        2.034698724746704,
        -1.1543364524841309,
        2.160496711730957,
        -3.3761703968048096,
        -0.8664045333862305,
        2.7285664081573486,
        1.107895851135254,
        12.73891830444336,
        4.4968743324279785,
        4.574565887451172,
        2.416898250579834,
        1.939483404159546,
        -4.150744438171387,
        -1.577749490737915,
        5.7469258308410645,
        4.084952354431152,
        11.803528785705566,
        10.025928497314453,
        -9.284073829650879,
        -6.529700756072998,
        -5.047473907470703,
        -8.20120906829834,
        0.3569660782814026,
        -3.702037811279297,
        6.961820125579834,
        17.278076171875,
        12.238988876342773,
        -1.2348791360855103,
        -6.599240303039551,
        0.18989655375480652,
        -0.19841516017913818,
        0.08309555798768997,
        0.042387597262859344,
        0.058973558247089386,
        -0.19003720581531525,
        0.10028624534606934,
        0.05357853323221207,
        -0.3250426948070526,
        0.7576895952224731,
        -1.129241704940796,
        0.09187770634889603,
        1.5889310836791992,
        0.9092636704444885,
        -6.109234809875488,
        3.6784205436706543,
        0.5693264007568359,
        0.8519404530525208,
        1.5812147855758667,
        -4.042503356933594,
        1.644854187965393,
        1.9289543628692627,
        1.4684638977050781,
        6.198119163513184,
        -0.6891487240791321,
        -0.3843451738357544,
        -1.9786310195922852,
        0.791422963142395,
        -1.1882914304733276,
        0.009951704181730747,
        0.36489060521125793,
        -0.06838168948888779,
        0.4829624891281128,
        -0.16106536984443665,
        -0.0028823299799114466,
        -0.1267513781785965,
        -0.16537828743457794,
        1.5336405038833618,
        -0.12966305017471313,
        -0.7954515814781189,
        0.036426421254873276,
        -0.23211224377155304,
        0.15234477818012238,
        -0.5048053860664368,
        -1.7264784574508667,
        0.18299449980258942,
        -0.03088134527206421,
        -0.010859699919819832,
        -0.033218465745449066,
        0.035006843507289886,
        -0.4151596128940582,
        0.35086023807525635,
        -0.026932016015052795,
        -0.46656209230422974,
        1.1777985095977783,
        -2.6245524883270264,
        -2.3381552696228027,
        3.0660758018493652,
        3.0739009380340576,
        7.053790092468262,
        2.2506158351898193,
        4.838233470916748,
        -0.7235491871833801,
        1.8421423435211182,
        -1.892560362815857,
        -5.491471767425537,
        3.7834718227386475,
        4.132950305938721,
        6.103011131286621,
        3.288123369216919,
        6.17587947845459,
        -4.001436233520508,
        3.9654877185821533,
        0.5252393484115601,
        -12.446344375610352,
        4.789231777191162,
        3.8838138580322266,
        7.070807933807373,
        3.9592783451080322,
        14.867976188659668,
        -9.38953971862793,
        -1.3971874713897705,
        1.8408162593841553,
        -0.08855129033327103,
        0.9987253546714783,
        3.4677464962005615,
        -3.121164321899414,
        3.1752383708953857,
        0.6407172083854675,
        0.5263736248016357,
        1.3538731336593628,
        0.4152778387069702,
        -0.4796256124973297,
        0.33260053396224976,
        1.1866059303283691,
        -14.0460786819458,
        4.742587566375732,
        0.4061291515827179,
        -0.10114524513483047,
        -0.07395746558904648,
        0.480256587266922,
        -0.01841285452246666,
        -0.32111331820487976,
        -0.055870894342660904,
        -0.377025842666626,
        0.2715756297111511,
        0.02019909769296646,
        -0.47398465871810913
      ]
    },
    {
      "activation": "rectified",
      "architecture": "dense",
      "bias": [],
      "weights": []
    },
    {
      "activation": "linear",
      "architecture": "dense",
      "bias": [
        0.30772316455841064
      ],
      "weights": [
        0.041111718863248825,
        0.05241473391652107,
        0.08743264526128769,
        0.07543644309043884,
        1.2183181047439575,
        0.04289374500513077,
        -0.002306385664269328,
        0.04211903735995293,
        -0.9780435562133789,
        0.013687700033187866,
        0.07396509498357773,
        -0.06747972220182419,
        -0.9745197296142578,
        -3.9898593425750732,
        0.09925435483455658,
        0.37027719616889954,
        0.10039996355772018,
        0.018517687916755676,
        0.05089429020881653,
        0.02928396686911583,
        -0.10779012739658356,
        0.06864583492279053,
        0.37955108284950256,
        1.4752227067947388,
        -1.435282826423645,
        -0.305706262588501,
        0.022665945813059807,
        0.006592765916138887,
        0.0021200175397098064,
        -0.06462495028972626,
        0.0387781485915184,
        -0.5101533532142639
      ]
    },
    {
      "activation": "sigmoid",
      "architecture": "dense",
      "bias": [],
      "weights": []
    }
  ],
  "nodes": [
    {
      "layer_index": 1,
      "sources": [
        2
      ],
      "type": "feed_forward"
    },
    {
      "layer_index": 3,
      "sources": [
        3
      ],
      "type": "feed_forward"
    },
    {
      "layer_index": 0,
      "sources": [
        4
      ],
      "type": "feed_forward"
    },
    {
      "layer_index": 2,
      "sources": [
        0
      ],
      "type": "feed_forward"
    },
    {
      "size": 9,
      "sources": [
        0
      ],
      "type": "input"
    }
  ],
  "outputs": {
    "activation_2_0": {
      "labels": [
        "out_0"
      ],
      "node_index": 1
    }
  }
}
