{
  "input_sequences": [],
  "inputs": [
    {
      "name": "node_0",
      "variables": [
        {
          "name": "MET",
          "offset": 0,
          "scale": 1
        },
        {
          "name": "HT",
          "offset": 0,
          "scale": 1
        },
        {
          "name": "dPhiMETdijet",
          "offset": 0,
          "scale": 1
        },
        {
          "name": "pTB1",
          "offset": 0,
          "scale": 1
        },
        {
          "name": "pTB2",
          "offset": 0,
          "scale": 1
        },
        {
          "name": "mBB",
          "offset": 0,
          "scale": 1
        },
        {
          "name": "dRBB",
          "offset": 0,
          "scale": 1
        },
        {
          "name": "dEtaBB",
          "offset": 0,
          "scale": 1
        },
        {
          "name": "pTJ3",
          "offset": 0,
          "scale": 1
        },
        {
          "name": "mBBJ",
          "offset": 0,
          "scale": 1
        }
      ]
    }
  ],
  "layers": [
    {
      "activation": "linear",
      "architecture": "dense",
      "bias": [
        0.0,
        0.0,
        -0.146202951669693,
        -0.0041081891395151615,
        -0.07772228866815567,
        0.0,
        -0.11616788804531097,
        -0.005860771518200636,
        0.0,
        0.002142392797395587,
        -5.922382354736328,
        0.0,
        -0.00797299761325121,
        -17.82658576965332,
        -1.3522517681121826,
        0.0,
        2.4777939319610596,
        -6.377862930297852,
        4.9517717361450195,
        -4.875567436218262,
        -0.1267954558134079,
        -0.07078170776367188,
        16.843875885009766,
        0.0,
        18.603055953979492,
        -0.2140776515007019,
        3.9374449253082275,
        -16.303592681884766,
        -0.07067908346652985,
        -0.09780228137969971,
        -0.7593925595283508,
        -0.29127559065818787
      ],
      "weights": [
        -0.3422316610813141,
        -0.23746363818645477,
        -0.26614910364151,
        0.0434454083442688,
        0.33855387568473816,
        -0.3543335795402527,
        -0.022635996341705322,
        0.3315941393375397,
        0.13470813632011414,
        -0.3009070158004761,
        -0.2067774385213852,
        -0.03732055425643921,
        0.012958705425262451,
        -0.2310463786125183,
        -0.03313726186752319,
        0.017698198556900024,
        -0.07086992263793945,
        -0.07204228639602661,
        0.2796591818332672,
        -0.2704472839832306,
        0.1992124617099762,
        -0.07040490955114365,
        -0.35224252939224243,
        -0.19714230298995972,
        0.12783247232437134,
        -0.019622469320893288,
        0.2533625066280365,
        -0.06847495585680008,
        0.0017988721374422312,
        -0.26446256041526794,
        0.028482116758823395,
        -0.17543303966522217,
        0.09670279175043106,
        0.13515305519104004,
        -0.07750821858644485,
        0.16341613233089447,
        -0.049250584095716476,
        0.5029187202453613,
        0.24342979490756989,
        -0.04226737841963768,
        0.03551776334643364,
        -0.06500497460365295,
        -0.4229798913002014,
        0.04780527949333191,
        0.21465681493282318,
        0.12361086159944534,
        0.14247702062129974,
        0.1896282583475113,
        -0.4234100580215454,
        -0.17746980488300323,
        -0.05709177255630493,
        -0.3471772074699402,
        -0.2961473762989044,
        -0.07353895902633667,
        0.0067546069622039795,
        0.04548951983451843,
        0.22304770350456238,
        -0.025098562240600586,
        0.01702132821083069,
        -0.17013582587242126,
        0.052228134125471115,
        0.0506780706346035,
        0.09598220884799957,
        -0.4126289486885071,
        0.3245236873626709,
        -0.3132847249507904,
        -0.25434812903404236,
        -0.32343652844429016,
        -0.35650044679641724,
        -0.09295890480279922,
        0.03402186185121536,
        0.004333418793976307,
        0.5471588373184204,
        -0.13808409869670868,
        -0.022499170154333115,
        0.1579727828502655,
        0.09877964109182358,
        0.26480796933174133,
        0.0822063684463501,
        -0.4159409701824188,
        0.285420686006546,
        -0.3511867821216583,
        -0.333391398191452,
        -0.08645638823509216,
        0.25808557868003845,
        -0.0857706367969513,
        -0.14637354016304016,
        0.17322096228599548,
        0.10830333828926086,
        -0.03532135486602783,
        0.34447911381721497,
        -0.21844539046287537,
        0.30757609009742737,
        0.02329547517001629,
        -0.1982845664024353,
        0.11587892472743988,
        -0.22257988154888153,
        0.06939266622066498,
        0.18283043801784515,
        -0.17491242289543152,
        0.33923184871673584,
        -0.4477876126766205,
        -5.7017927169799805,
        0.3873540461063385,
        0.4309956133365631,
        0.17337782680988312,
        0.4065207839012146,
        1.643512487411499,
        0.3263036906719208,
        -0.02683986909687519,
        0.10392844676971436,
        -0.13562601804733276,
        0.04465875029563904,
        -0.20295356214046478,
        0.16304579377174377,
        0.19126638770103455,
        0.19924208521842957,
        -0.2564578056335449,
        -0.2390081286430359,
        -0.1588771641254425,
        0.20788466930389404,
        -0.39123958349227905,
        -0.22753416001796722,
        0.3050743341445923,
        0.0369860976934433,
        0.22935065627098083,
        0.2063513845205307,
        0.25987040996551514,
        0.3524397015571594,
        -0.00877321232110262,
        1.2062764167785645,
        -1.222731351852417,
        -14.940435409545898,
        1.2135356664657593,
        1.2405942678451538,
        0.4301054775714874,
        3.9594533443450928,
        2.0385689735412598,
        1.1393532752990723,
        -0.014446398243308067,
        1.7909348011016846,
        -1.8230291604995728,
        0.3370998203754425,
        1.8150666952133179,
        1.9329473972320557,
        0.19231624901294708,
        -16.84518051147461,
        -1.745651364326477,
        1.8010390996932983,
        0.02573123387992382,
        -0.15426622331142426,
        -0.08398181200027466,
        0.2734787166118622,
        -0.03737792372703552,
        0.08096644282341003,
        -0.3558313548564911,
        0.05806952714920044,
        -0.01339671015739441,
        0.3130289614200592,
        -0.09476450085639954,
        0.013907264918088913,
        -0.05828200653195381,
        2.4388906955718994,
        0.059497736394405365,
        0.12388861924409866,
        -0.3591613471508026,
        2.387509822845459,
        1.8118436336517334,
        0.04082201048731804,
        -0.009913944639265537,
        0.5228449106216431,
        -1.9105921983718872,
        -4.095316410064697,
        2.158478260040283,
        1.5457779169082642,
        2.2845027446746826,
        1.621690273284912,
        3.896359920501709,
        3.4810407161712646,
        -0.8658908605575562,
        0.3605501353740692,
        -0.8363718390464783,
        4.084295272827148,
        -0.31864437460899353,
        -1.0638134479522705,
        -2.197096586227417,
        4.823088645935059,
        11.620460510253906,
        2.925199270248413,
        0.45521461963653564,
        0.6659206748008728,
        -1.5782990455627441,
        -3.1364076137542725,
        1.556634783744812,
        1.6570746898651123,
        1.014412760734558,
        3.5940709114074707,
        6.762951850891113,
        1.6351069211959839,
        0.017666524276137352,
        -0.056080661714076996,
        -0.20222610235214233,
        0.11376005411148071,
        0.08819493651390076,
        -0.03378179669380188,
        0.09686201810836792,
        -0.2043253779411316,
        -0.5554038882255554,
        -0.0038752418477088213,
        0.041145626455545425,
        0.041178688406944275,
        -0.2412213832139969,
        -0.012981501407921314,
        0.27279454469680786,
        -0.15404939651489258,
        0.1678651124238968,
        0.3561785817146301,
        0.4627554714679718,
        -0.10965561121702194,
        0.005872273817658424,
        0.7332198619842529,
        -0.893674910068512,
        12.30037784576416,
        1.034035086631775,
        1.078667163848877,
        -0.8675913214683533,
        13.579668045043945,
        6.7338786125183105,
        0.8967177867889404,
        0.03383730351924896,
        0.03137966990470886,
        -0.2837010324001312,
        -0.3561623990535736,
        0.013656020164489746,
        0.0062601566314697266,
        0.3709254562854767,
        -0.2649367153644562,
        0.08580699563026428,
        0.26697298884391785,
        -0.18685735762119293,
        0.7506011128425598,
        -0.8711025714874268,
        11.902275085449219,
        0.9981818199157715,
        1.0221613645553589,
        -0.8422276377677917,
        13.703179359436035,
        5.728414058685303,
        0.9252650737762451,
        0.010930647142231464,
        -0.3978908360004425,
        0.17953850328922272,
        -0.21137601137161255,
        -0.02407918870449066,
        -0.40257683396339417,
        0.13733090460300446,
        -0.23156395554542542,
        -0.3251356780529022,
        -0.32296666502952576,
        -0.28705868124961853,
        0.07016517966985703,
        -0.1425221711397171,
        3.5061380863189697,
        0.15160389244556427,
        0.1680423617362976,
        -0.29511311650276184,
        3.746044874191284,
        2.767800807952881,
        0.1147892028093338,
        -0.01114080660045147,
        0.6406846642494202,
        -0.7335799932479858,
        -13.247664451599121,
        0.6608505845069885,
        0.7103012800216675,
        0.387749046087265,
        1.754130482673645,
        1.3325799703598022,
        0.6134886145591736,
        -0.028653431683778763,
        0.20827659964561462,
        -0.23955775797367096,
        -0.2910042107105255,
        -0.291837215423584,
        -0.43346256017684937,
        0.2678001821041107,
        -0.3860357403755188,
        -0.45173507928848267,
        0.2276090681552887,
        -0.00605926476418972,
        0.25533223152160645,
        -0.18811756372451782,
        -0.22627834975719452,
        0.20333127677440643,
        -0.10427802801132202,
        -0.0847070962190628,
        -0.39363333582878113,
        -0.4377051293849945,
        -0.3411247432231903,
        -0.18322546780109406,
        1.1652836799621582,
        -1.309014081954956,
        1.614067554473877,
        1.5795021057128906,
        2.0899672508239746,
        0.1831968128681183,
        4.517127513885498,
        16.14091682434082,
        1.5682228803634644,
        -0.5873754024505615,
        -0.39756712317466736,
        0.16187119483947754,
        -0.5231965184211731,
        -0.2828647494316101,
        -0.1442948430776596,
        0.22669941186904907,
        0.1689065545797348,
        0.047852810472249985,
        -0.37277743220329285,
        -0.00955260917544365
      ]
    },
    {
      "activation": "rectified",
      "architecture": "dense",
      "bias": [],
      "weights": []
    },
    {
      "activation": "linear",
      "architecture": "dense",
      "bias": [
        0.2936069071292877
      ],
      "weights": [
        0.32522886991500854,
        0.38626688718795776,
        0.29249313473701477,
        -0.06264825910329819,
        -0.09422320127487183,
        -0.30042579770088196,
        0.12767991423606873,
        -0.4433020055294037,
        0.06459265947341919,
        -0.22795549035072327,
        -0.19900831580162048,
        0.4113042950630188,
        -0.0005839481018483639,
        -0.1276952624320984,
        0.03670579940080643,
        -0.20819628238677979,
        -0.24850378930568695,
        -0.04978099837899208,
        -0.026480985805392265,
        -0.07062280178070068,
        0.06373295933008194,
        -0.146992489695549,
        -0.09229415655136108,
        -0.024013489484786987,
        -0.05753586068749428,
        0.06676601618528366,
        -0.3227371275424957,
        -0.09595640003681183,
        0.16149501502513885,
        0.3259161710739136,
        0.023877950385212898,
        -0.09134285897016525
      ]
    },
    {
      "activation": "sigmoid",
      "architecture": "dense",
      "bias": [],
      "weights": []
    }
  ],
  "nodes": [
    {
      "layer_index": 1,
      "sources": [
        2
      ],
      "type": "feed_forward"
    },
    {
      "layer_index": 3,
      "sources": [
        3
      ],
      "type": "feed_forward"
    },
    {
      "layer_index": 0,
      "sources": [
        4
      ],
      "type": "feed_forward"
    },
    {
      "layer_index": 2,
      "sources": [
        0
      ],
      "type": "feed_forward"
    },
    {
      "size": 10,
      "sources": [
        0
      ],
      "type": "input"
    }
  ],
  "outputs": {
    "activation_2_0": {
      "labels": [
        "out_0"
      ],
      "node_index": 1
    }
  }
}
