{
  "input_sequences": [],
  "inputs": [
    {
      "name": "node_0",
      "variables": [
        {
          "name": "MET",
          "offset": -207.13545515522765,
          "scale": 0.01702244697737148
        },
        {
          "name": "HT",
          "offset": -440.6138210118114,
          "scale": 0.008112274581901942
        },
        {
          "name": "dPhiMETdijet",
          "offset": -3.091700241203619,
          "scale": 18.62472546170248
        },
        {
          "name": "pTB1",
          "offset": -183.7124888393353,
          "scale": 0.015721608122285194
        },
        {
          "name": "pTB2",
          "offset": -49.41795034670244,
          "scale": 0.03314378565085214
        },
        {
          "name": "mBB",
          "offset": -123.49612519489519,
          "scale": 0.020842121745999972
        },
        {
          "name": "dRBB",
          "offset": -1.4978007382696417,
          "scale": 1.5313929149725811
        },
        {
          "name": "dEtaBB",
          "offset": -0.9340172618280835,
          "scale": 1.7481459627266602
        }
      ]
    }
  ],
  "layers": [
    {
      "activation": "linear",
      "architecture": "dense",
      "bias": [
        2.225288152694702,
        -2.490328788757324,
        3.1488616466522217,
        -2.1891674995422363,
        -1.9000450372695923,
        3.3181748390197754,
        2.812880754470825,
        1.093833327293396,
        -0.9693637490272522,
        -2.4462597370147705,
        -2.582939863204956,
        1.702712059020996,
        -1.5992968082427979,
        3.4539635181427,
        1.97323739528656,
        -1.2336081266403198,
        2.9201765060424805,
        -3.0248589515686035,
        3.3750340938568115,
        -1.5376182794570923,
        3.1085832118988037,
        2.882539987564087,
        3.087993860244751,
        2.6721599102020264,
        -2.7843077182769775,
        -2.519956111907959,
        -2.6416938304901123,
        -0.9279583096504211,
        -1.7744821310043335,
        -2.0545802116394043,
        -1.960960030555725,
        -2.586540699005127
      ],
      "weights": [
        0.44456714391708374,
        0.30326175689697266,
        -0.11045973747968674,
        0.5856279134750366,
        1.7431352138519287,
        0.7480649352073669,
        1.524574875831604,
        0.28749915957450867,
        0.5439809560775757,
        -0.14868932962417603,
        -0.9781448841094971,
        0.953179121017456,
        0.14509181678295135,
        2.6445629596710205,
        2.8889498710632324,
        0.6973615288734436,
        0.4612862169742584,
        0.31185245513916016,
        -0.33147355914115906,
        0.9384550452232361,
        2.1478426456451416,
        1.8403416872024536,
        1.5301072597503662,
        -0.23025646805763245,
        0.4591405689716339,
        -0.5310430526733398,
        -0.23663483560085297,
        -0.8817588686943054,
        0.9778979420661926,
        2.4371087551116943,
        2.0804531574249268,
        0.25316670536994934,
        -0.44141191244125366,
        -0.32623305916786194,
        1.065987229347229,
        0.08591916412115097,
        0.3291795253753662,
        -2.0700490474700928,
        0.7519581317901611,
        0.04283725842833519,
        1.2040265798568726,
        1.002219557762146,
        -0.6943185329437256,
        0.1662036031484604,
        2.2381656169891357,
        1.7103960514068604,
        2.1114583015441895,
        -0.6200551986694336,
        0.3726436495780945,
        0.08385979384183884,
        -0.7095969915390015,
        0.509856641292572,
        1.9667088985443115,
        1.6429111957550049,
        1.6393402814865112,
        -0.11183935403823853,
        0.36960354447364807,
        -0.04359373450279236,
        5.098867416381836,
        -0.28087571263313293,
        2.4526493549346924,
        0.9975612163543701,
        1.7736412286758423,
        -0.9427611231803894,
        -0.4787837564945221,
        1.0577325820922852,
        0.112784244120121,
        -0.19379043579101562,
        0.22105605900287628,
        -2.656141519546509,
        1.0040825605392456,
        0.01658782921731472,
        0.615812361240387,
        0.16560493409633636,
        -0.1301538199186325,
        -0.6412230730056763,
        0.05710062384605408,
        -3.947467565536499,
        -0.31052160263061523,
        -0.002129161264747381,
        0.308804988861084,
        0.4550434350967407,
        -0.1387350708246231,
        -0.49810028076171875,
        0.2151123285293579,
        -4.136171340942383,
        -0.24278771877288818,
        -0.020756520330905914,
        -4.001835823059082,
        -3.2494900226593018,
        -1.148862361907959,
        -0.8638302087783813,
        3.728200912475586,
        1.162718415260315,
        0.7552414536476135,
        -1.715155839920044,
        0.1847924143075943,
        -0.4217779338359833,
        0.0036524003371596336,
        0.23240920901298523,
        0.24025659263134003,
        2.4181690216064453,
        -0.4418427646160126,
        -0.20305626094341278,
        0.2619785964488983,
        0.6311320662498474,
        -0.6155213117599487,
        0.43844324350357056,
        2.4968690872192383,
        1.380945086479187,
        2.239462375640869,
        -0.04554729163646698,
        -1.5268055200576782,
        -1.6801401376724243,
        -1.017215371131897,
        -0.3661973178386688,
        3.976980686187744,
        2.4891746044158936,
        1.6452889442443848,
        -0.056890640407800674,
        0.48509886860847473,
        -1.1602274179458618,
        -0.0030997800640761852,
        0.3919900059700012,
        0.29041698575019836,
        2.49029803276062,
        -0.5873349905014038,
        -0.2145545929670334,
        0.7092671990394592,
        0.3392316997051239,
        -0.601424515247345,
        0.5178537964820862,
        2.018906354904175,
        1.1210373640060425,
        1.1386847496032715,
        0.09398926794528961,
        0.3468225598335266,
        -2.25547194480896,
        -0.10473522543907166,
        -0.28153368830680847,
        0.5413674116134644,
        2.605048418045044,
        1.3515397310256958,
        -0.32328319549560547,
        0.6433501839637756,
        0.5521471500396729,
        -0.6796377301216125,
        0.5342620015144348,
        2.410464286804199,
        2.112638473510742,
        1.5444183349609375,
        -0.44286832213401794,
        0.2557459771633148,
        -0.68377685546875,
        0.706072211265564,
        0.2195264995098114,
        0.2493630200624466,
        2.1448769569396973,
        -0.026291662827134132,
        -0.12985235452651978,
        0.4330703914165497,
        0.3412190079689026,
        -0.5652759075164795,
        0.8671857714653015,
        1.8783766031265259,
        1.7396336793899536,
        1.4410117864608765,
        -0.05970268324017525,
        0.622713029384613,
        0.31020277738571167,
        -1.1014351844787598,
        0.30579501390457153,
        2.010042905807495,
        1.3584544658660889,
        1.2505322694778442,
        0.09076909720897675,
        0.3382543921470642,
        0.7345531582832336,
        -0.44640660285949707,
        0.8026002049446106,
        2.0929477214813232,
        1.369040846824646,
        1.56854248046875,
        -0.23137760162353516,
        0.459294855594635,
        0.3743182420730591,
        -0.909461259841919,
        0.8382889032363892,
        2.279625177383423,
        1.5646470785140991,
        1.9198675155639648,
        -0.4122728705406189,
        0.3190983235836029,
        -0.861775279045105,
        -0.2585168778896332,
        1.5399370193481445,
        0.5516412258148193,
        1.6312527656555176,
        2.2118303775787354,
        -0.706641674041748,
        0.24040284752845764,
        -0.08830025792121887,
        -0.8453042507171631,
        -0.539040744304657,
        -1.2419590950012207,
        -2.8402607440948486,
        1.281111240386963,
        1.0147593021392822,
        0.9775072336196899,
        -0.5235734581947327,
        -1.0010794401168823,
        1.0103710889816284,
        0.31471097469329834,
        3.121412992477417,
        3.2999956607818604,
        1.7758233547210693,
        -0.36234626173973083,
        0.5895668864250183,
        -0.08747484534978867,
        -0.14114715158939362,
        0.3050360679626465,
        -2.864109754562378,
        0.7139856219291687,
        0.09296978265047073,
        0.16052453219890594,
        0.49166256189346313,
        -0.8422974348068237,
        0.026628663763403893,
        -0.029892191290855408,
        -2.872295379638672,
        0.8373786211013794,
        -0.022002611309289932,
        0.5223996043205261,
        -0.5328100323677063,
        0.016941726207733154,
        0.046565327793359756,
        0.6850166320800781,
        1.8792855739593506,
        1.0322105884552002,
        1.3945480585098267,
        0.15357831120491028,
        -0.4135075509548187,
        -0.2913510501384735,
        0.6121116280555725,
        0.40251246094703674,
        2.1863842010498047,
        0.5338218212127686,
        -0.4337204396724701,
        0.9147145748138428,
        -0.6533398628234863,
        -0.14124752581119537,
        -0.078382708132267,
        0.8925754427909851,
        2.4037797451019287,
        1.8497116565704346,
        2.008793354034424
      ]
    },
    {
      "activation": "rectified",
      "architecture": "dense",
      "bias": [],
      "weights": []
    },
    {
      "activation": "linear",
      "architecture": "dense",
      "bias": [
        0.8988718390464783
      ],
      "weights": [
        0.032136548310518265,
        -0.10017625242471695,
        0.03515570983290672,
        -0.35840874910354614,
        -1.6129536628723145,
        0.019452964887022972,
        0.02270747721195221,
        0.07773220539093018,
        -0.6440094113349915,
        -0.5352076292037964,
        -0.4153745472431183,
        0.05232701078057289,
        -1.8607711791992188,
        0.05189279839396477,
        0.031022492796182632,
        -1.361108422279358,
        0.021078506484627724,
        -0.6882495880126953,
        0.026387449353933334,
        -1.305345058441162,
        0.021410366520285606,
        0.04494643583893776,
        0.053242847323417664,
        0.006459546275436878,
        -0.5337603092193604,
        -0.6703824996948242,
        -0.15464529395103455,
        -0.8274134397506714,
        -0.30148983001708984,
        -0.3727490305900574,
        -0.8478395938873291,
        -0.29255902767181396
      ]
    },
    {
      "activation": "sigmoid",
      "architecture": "dense",
      "bias": [],
      "weights": []
    }
  ],
  "nodes": [
    {
      "layer_index": 1,
      "sources": [
        2
      ],
      "type": "feed_forward"
    },
    {
      "layer_index": 3,
      "sources": [
        3
      ],
      "type": "feed_forward"
    },
    {
      "layer_index": 0,
      "sources": [
        4
      ],
      "type": "feed_forward"
    },
    {
      "layer_index": 2,
      "sources": [
        0
      ],
      "type": "feed_forward"
    },
    {
      "size": 8,
      "sources": [
        0
      ],
      "type": "input"
    }
  ],
  "outputs": {
    "activation_2_0": {
      "labels": [
        "out_0"
      ],
      "node_index": 1
    }
  }
}
