{
  "input_sequences": [],
  "inputs": [
    {
      "name": "node_0",
      "variables": [
        {
          "name": "MET",
          "offset": 0,
          "scale": 1
        },
        {
          "name": "HT",
          "offset": 0,
          "scale": 1
        },
        {
          "name": "dPhiMETdijet",
          "offset": 0,
          "scale": 1
        },
        {
          "name": "pTB1",
          "offset": 0,
          "scale": 1
        },
        {
          "name": "pTB2",
          "offset": 0,
          "scale": 1
        },
        {
          "name": "mBB",
          "offset": 0,
          "scale": 1
        },
        {
          "name": "dRBB",
          "offset": 0,
          "scale": 1
        },
        {
          "name": "dEtaBB",
          "offset": 0,
          "scale": 1
        },
        {
          "name": "pTJ3",
          "offset": 0,
          "scale": 1
        },
        {
          "name": "mBBJ",
          "offset": 0,
          "scale": 1
        }
      ]
    }
  ],
  "layers": [
    {
      "activation": "linear",
      "architecture": "dense",
      "bias": [
        0.14442716538906097,
        -4.312103271484375,
        -0.3990035951137543,
        -0.2439335286617279,
        10.865598678588867,
        0.0,
        -0.1341867446899414,
        -0.08220135420560837,
        -0.08832711726427078,
        -0.7088019251823425,
        -0.9174892902374268,
        -4.625715255737305,
        -7.60300350189209,
        3.7174313068389893,
        -0.34167009592056274,
        0.0,
        -4.574771881103516,
        -2.611250638961792,
        -4.9630608558654785,
        0.7579257488250732,
        -0.2210288941860199,
        -3.5746142864227295,
        -0.1440332978963852,
        1.1099026203155518,
        4.288425445556641,
        0.0,
        -8.32841682434082,
        2.8836348056793213,
        -0.11655905097723007,
        0.0,
        0.0,
        -0.2486914098262787
      ],
      "weights": [
        0.1710289716720581,
        -0.24116355180740356,
        0.4759128987789154,
        0.13599859178066254,
        -0.18010090291500092,
        -0.042563457041978836,
        0.015996180474758148,
        -0.08882714807987213,
        0.354705810546875,
        0.003734631696715951,
        0.3396114408969879,
        -0.44351354241371155,
        -4.325293064117432,
        0.3341301381587982,
        0.029173363000154495,
        0.5365723371505737,
        1.891464352607727,
        0.9881035685539246,
        0.6307559013366699,
        -0.029013117775321007,
        0.046728525310754776,
        -0.2607496380805969,
        -0.08939365297555923,
        0.16865727305412292,
        -0.27866438031196594,
        0.27973589301109314,
        0.35455167293548584,
        0.8684870004653931,
        0.2098812311887741,
        -0.009726731106638908,
        0.12771329283714294,
        -0.1509912610054016,
        -0.01508060097694397,
        -0.42812180519104004,
        0.14239080250263214,
        0.02942845970392227,
        -0.22704826295375824,
        -0.03368327394127846,
        -0.1635454297065735,
        0.040672726929187775,
        0.45734700560569763,
        -0.5535639524459839,
        8.78364372253418,
        0.6372777819633484,
        0.6861299276351929,
        -0.5874512195587158,
        8.873443603515625,
        3.9745635986328125,
        0.5747817754745483,
        0.014287886209785938,
        -0.10688626766204834,
        -0.18008029460906982,
        0.301642507314682,
        0.11769792437553406,
        0.1896059215068817,
        -0.35012590885162354,
        0.09408831596374512,
        -0.1429608315229416,
        -0.3312147855758667,
        -0.16863702237606049,
        0.09679834544658661,
        -0.02822434902191162,
        -0.11101038008928299,
        -0.0008484814316034317,
        0.10921073704957962,
        0.07169932126998901,
        -0.2986905872821808,
        -0.3921014368534088,
        -0.23401020467281342,
        -0.3611615002155304,
        -0.013710982166230679,
        0.061869725584983826,
        -0.1934182047843933,
        -0.038711175322532654,
        -0.18281051516532898,
        0.0064248936250805855,
        -0.158105731010437,
        -0.20845752954483032,
        -0.17115044593811035,
        -0.3712987005710602,
        -0.29693877696990967,
        -0.14599543809890747,
        -0.09590530395507812,
        -0.1405220329761505,
        0.2759864330291748,
        0.07885053753852844,
        0.058625008910894394,
        0.13286373019218445,
        -0.3804995119571686,
        0.07358424365520477,
        0.5482776761054993,
        -0.5817649960517883,
        -0.3565039038658142,
        0.5972558856010437,
        0.7261728644371033,
        0.16510716080665588,
        -12.928434371948242,
        -4.45829963684082,
        0.5308811068534851,
        0.03408220037817955,
        -0.06496790796518326,
        0.032999925315380096,
        -0.4208119511604309,
        -0.056073036044836044,
        0.03571462631225586,
        0.28880587220191956,
        0.3223893940448761,
        2.9859328269958496,
        0.04538999870419502,
        -0.3365795612335205,
        -0.09525292366743088,
        0.006289437413215637,
        -4.4004716873168945,
        -0.05461454391479492,
        -0.09216323494911194,
        0.20387142896652222,
        -0.009754246100783348,
        0.7825269103050232,
        -0.045971792191267014,
        -0.014837993308901787,
        0.30589133501052856,
        -0.3999016284942627,
        -7.318728446960449,
        0.35618773102760315,
        0.3660532832145691,
        0.15654534101486206,
        1.8875585794448853,
        2.712705135345459,
        0.3126369118690491,
        -0.02253032475709915,
        -0.03504433482885361,
        -0.04280666261911392,
        3.5930564403533936,
        0.0453537218272686,
        0.07836627960205078,
        -0.27494949102401733,
        2.9562795162200928,
        2.8680922985076904,
        -0.0007527421694248915,
        -0.00662066787481308,
        -0.02404976449906826,
        0.028798077255487442,
        -0.18370765447616577,
        0.07881137728691101,
        0.11164616793394089,
        -0.3771306574344635,
        -0.038520265370607376,
        -0.4507417380809784,
        -0.530290424823761,
        -0.20717960596084595,
        0.05513429641723633,
        -0.27078258991241455,
        -0.30637457966804504,
        -0.30579623579978943,
        -0.28220123052597046,
        -0.003174811601638794,
        -0.2703794240951538,
        0.3130910098552704,
        0.16216793656349182,
        -0.30339547991752625,
        0.12703272700309753,
        -0.21336117386817932,
        -4.0305070877075195,
        0.1829296350479126,
        0.1559697985649109,
        0.19678042829036713,
        -0.2569402754306793,
        0.9947851896286011,
        0.14920087158679962,
        -0.02417411468923092,
        0.07466845959424973,
        -0.9037516117095947,
        -1.5592598915100098,
        0.9923979043960571,
        1.0500178337097168,
        1.1483951807022095,
        2.0531089305877686,
        2.49483060836792,
        1.6740261316299438,
        -0.3601697087287903,
        0.3539133071899414,
        -0.6444327235221863,
        -4.960850238800049,
        0.6750653386116028,
        0.7198624610900879,
        0.3660794496536255,
        1.3811166286468506,
        3.3120434284210205,
        0.589564323425293,
        0.01870560087263584,
        0.4086948037147522,
        -0.4801101088523865,
        1.5908507108688354,
        0.5758721828460693,
        0.921143651008606,
        0.26674047112464905,
        -0.08276211470365524,
        9.464720726013184,
        0.6370270848274231,
        -0.3779110908508301,
        -0.33457863330841064,
        0.11134856939315796,
        -0.5093505382537842,
        -0.19088535010814667,
        0.22649314999580383,
        -0.39854350686073303,
        -0.17135776579380035,
        -0.573652982711792,
        -0.4693705439567566,
        0.03979910537600517,
        -0.040537524968385696,
        -0.07326643913984299,
        -3.2360143661499023,
        0.01764993742108345,
        -0.045147646218538284,
        0.23879961669445038,
        -1.0380151271820068,
        0.06560955196619034,
        0.020399369299411774,
        -0.02479160949587822,
        -0.1613449603319168,
        0.07369355857372284,
        0.031538333743810654,
        0.08837845921516418,
        -0.35199952125549316,
        -0.33547377586364746,
        -0.40654245018959045,
        -0.06099966540932655,
        -0.5148579478263855,
        -0.10720003396272659,
        -0.0852951779961586,
        0.032346297055482864,
        1.1245087385177612,
        -0.015374458394944668,
        0.1420779526233673,
        -0.2940116822719574,
        0.6650761961936951,
        1.041358470916748,
        0.14306938648223877,
        -0.39165884256362915,
        0.15174853801727295,
        -0.2343783676624298,
        3.9973626136779785,
        0.23834183812141418,
        0.2745344042778015,
        -0.3271968960762024,
        3.841165542602539,
        3.3629486560821533,
        0.18893738090991974,
        -0.017606379464268684,
        0.21778175234794617,
        -0.28960081934928894,
        0.10305777192115784,
        -0.2232266515493393,
        0.3240063488483429,
        0.0812256932258606,
        0.27342990040779114,
        -0.20901310443878174,
        -0.11052510142326355,
        -0.14484596252441406,
        0.4885846674442291,
        -0.5166558027267456,
        -7.395111083984375,
        0.5182162523269653,
        0.5216444134712219,
        0.23113121092319489,
        1.247928261756897,
        1.5217041969299316,
        0.47872182726860046,
        -0.0015904639149084687,
        0.25263091921806335,
        -0.4596528112888336,
        3.0163087844848633,
        0.17626547813415527,
        0.09753873199224472,
        -1.4707293510437012,
        2.8910722732543945,
        5.322309970855713,
        1.3039005994796753,
        0.2051594853401184,
        0.27982816100120544,
        -0.13940927386283875,
        -0.32800841331481934,
        0.06730211526155472,
        -0.09259229898452759,
        0.0672658234834671,
        -0.2823883593082428,
        -0.0024648241233080626,
        0.04167827218770981,
        -0.3948790431022644,
        -0.26781395077705383,
        -0.2808551788330078,
        0.03383028507232666,
        0.26406195759773254,
        0.22751489281654358,
        -0.34182673692703247,
        0.05669638514518738,
        -0.14496639370918274,
        -0.12264883518218994,
        -0.23258140683174133,
        -0.06938233971595764,
        -0.2653036117553711,
        -0.08780491352081299,
        0.11055150628089905,
        -0.15180140733718872,
        -0.11395001411437988,
        0.12954196333885193,
        -0.12420874834060669,
        0.07916244864463806,
        -0.05248430371284485,
        -0.08087429404258728,
        -0.17392827570438385,
        -0.5180290341377258,
        0.07572922110557556,
        -0.23229993879795074,
        -0.01039535365998745,
        -0.03598225861787796,
        -0.2927130162715912,
        0.02225460112094879,
        0.05948019400238991
      ]
    },
    {
      "activation": "rectified",
      "architecture": "dense",
      "bias": [],
      "weights": []
    },
    {
      "activation": "linear",
      "architecture": "dense",
      "bias": [
        0.30843690037727356
      ],
      "weights": [
        -0.0030180015601217747,
        -0.05034951493144035,
        -0.0029506816063076258,
        -0.0026339946780353785,
        -0.1366068720817566,
        -0.12030336260795593,
        0.26385897397994995,
        -0.02206989750266075,
        0.06866429001092911,
        0.05474325641989708,
        0.11088500916957855,
        -0.15901796519756317,
        -0.18141981959342957,
        -0.36864230036735535,
        0.06580545008182526,
        -0.11798053979873657,
        -0.1970534771680832,
        -0.07770290225744247,
        -0.12308231741189957,
        0.060350969433784485,
        0.3172292709350586,
        -0.12037558853626251,
        0.049663443118333817,
        -0.1046302542090416,
        -0.2771615982055664,
        -0.31103095412254333,
        -0.20848709344863892,
        -0.06415636837482452,
        0.13355399668216705,
        0.06763342022895813,
        0.08913379907608032,
        0.1791335642337799
      ]
    },
    {
      "activation": "sigmoid",
      "architecture": "dense",
      "bias": [],
      "weights": []
    }
  ],
  "nodes": [
    {
      "layer_index": 1,
      "sources": [
        2
      ],
      "type": "feed_forward"
    },
    {
      "layer_index": 3,
      "sources": [
        3
      ],
      "type": "feed_forward"
    },
    {
      "layer_index": 0,
      "sources": [
        4
      ],
      "type": "feed_forward"
    },
    {
      "layer_index": 2,
      "sources": [
        0
      ],
      "type": "feed_forward"
    },
    {
      "size": 10,
      "sources": [
        0
      ],
      "type": "input"
    }
  ],
  "outputs": {
    "activation_2_0": {
      "labels": [
        "out_0"
      ],
      "node_index": 1
    }
  }
}
