{
  "input_sequences": [],
  "inputs": [
    {
      "name": "node_0",
      "variables": [
        {
          "name": "MET",
          "offset": 0,
          "scale": 1
        },
        {
          "name": "HT",
          "offset": 0,
          "scale": 1
        },
        {
          "name": "dPhiMETdijet",
          "offset": 0,
          "scale": 1
        },
        {
          "name": "pTB1",
          "offset": 0,
          "scale": 1
        },
        {
          "name": "pTB2",
          "offset": 0,
          "scale": 1
        },
        {
          "name": "mBB",
          "offset": 0,
          "scale": 1
        },
        {
          "name": "dRBB",
          "offset": 0,
          "scale": 1
        },
        {
          "name": "dEtaBB",
          "offset": 0,
          "scale": 1
        }
      ]
    }
  ],
  "layers": [
    {
      "activation": "linear",
      "architecture": "dense",
      "bias": [
        0.0,
        0.0,
        -0.4062668979167938,
        -3.2071404457092285,
        -0.03063894808292389,
        0.0,
        -3.808502674102783,
        0.0,
        0.0,
        2.5230844020843506,
        -0.1728220134973526,
        0.0,
        -0.4378540813922882,
        -0.03188607841730118,
        0.0,
        0.0,
        0.0,
        0.0,
        2.100647449493408,
        -0.1360180675983429,
        0.0,
        0.0,
        -0.14017117023468018,
        -1.1963247060775757,
        0.0,
        0.0,
        -0.08685425668954849,
        -0.9578872323036194,
        0.0,
        0.0,
        -1.3097989559173584,
        -1.6121957302093506
      ],
      "weights": [
        -0.0840505063533783,
        -0.18813301622867584,
        0.0992564857006073,
        0.29105740785598755,
        -0.2858840227127075,
        0.026188582181930542,
        -0.22724023461341858,
        0.2592688798904419,
        0.020946204662322998,
        -0.13697686791419983,
        -0.27128612995147705,
        -0.3613421320915222,
        -0.336669385433197,
        0.20739775896072388,
        0.1968069076538086,
        0.22754675149917603,
        -0.1875194013118744,
        -0.04932097718119621,
        -0.628160297870636,
        0.05388014391064644,
        0.05498259887099266,
        0.18656717240810394,
        0.43015894293785095,
        1.2384835481643677,
        -0.14226509630680084,
        0.06163686886429787,
        -3.3758912086486816,
        -0.081988625228405,
        -0.09152588993310928,
        0.14259770512580872,
        -0.4173688292503357,
        0.9241696000099182,
        -0.24137361347675323,
        0.2171914428472519,
        -0.37509894371032715,
        -0.2672324776649475,
        -0.4469510018825531,
        -0.20936694741249084,
        0.16420429944992065,
        -0.06211128830909729,
        0.18597716093063354,
        -0.2500625252723694,
        0.0285893976688385,
        0.15010225772857666,
        -0.2854701280593872,
        -0.27055639028549194,
        -0.042689234018325806,
        -0.06245031952857971,
        -0.10344421863555908,
        0.01171340886503458,
        -3.606489419937134,
        -0.01878828927874565,
        -0.006216302514076233,
        0.08556735515594482,
        1.944587230682373,
        3.3976926803588867,
        0.012254506349563599,
        -0.22150911390781403,
        0.2589569687843323,
        0.1968405842781067,
        0.3680981993675232,
        -0.047986388206481934,
        -0.34391993284225464,
        0.022062718868255615,
        -0.22204792499542236,
        -0.2567795515060425,
        -0.13158255815505981,
        0.16886800527572632,
        0.20827502012252808,
        0.290216326713562,
        -0.15971985459327698,
        0.34629398584365845,
        0.10195700824260712,
        -0.13200244307518005,
        2.349168062210083,
        0.10818445682525635,
        0.1217862218618393,
        -0.18514889478683472,
        2.7467477321624756,
        1.7584480047225952,
        -0.02233327366411686,
        -0.026157118380069733,
        -0.46425509452819824,
        0.028963346034288406,
        -0.3970877230167389,
        0.08551577478647232,
        -0.30146849155426025,
        0.056422945111989975,
        0.18453186750411987,
        -0.21225273609161377,
        -0.21952970325946808,
        -0.2994760572910309,
        -0.2811003625392914,
        0.12695097923278809,
        0.28191256523132324,
        -0.14298772811889648,
        -0.3076188862323761,
        0.05149092152714729,
        -0.39542582631111145,
        -0.09554076194763184,
        -0.10029985010623932,
        0.2527591288089752,
        0.18814699351787567,
        0.17249517142772675,
        -0.30665263533592224,
        -0.1760227233171463,
        -0.18470610678195953,
        0.23238910734653473,
        -0.19220314919948578,
        0.3285754323005676,
        0.00014669972006231546,
        -0.1217590942978859,
        0.08697196841239929,
        -0.23638275265693665,
        -0.22894445061683655,
        -0.25700491666793823,
        -0.01945805549621582,
        -0.35941213369369507,
        -0.2862958610057831,
        -0.19380852580070496,
        0.29055702686309814,
        -0.26999446749687195,
        -0.3185107111930847,
        -0.2774096727371216,
        0.27216637134552,
        -0.2843407392501831,
        -0.0795646607875824,
        -0.3860611319541931,
        0.0053643882274627686,
        -0.2387843281030655,
        -0.3011709749698639,
        0.20862364768981934,
        0.11934202909469604,
        -0.24244478344917297,
        -0.2603052854537964,
        -0.23512139916419983,
        -0.21030040085315704,
        -0.28669044375419617,
        0.31880199909210205,
        0.20828139781951904,
        0.30577677488327026,
        0.23598968982696533,
        0.3651937246322632,
        -0.027897000312805176,
        0.08429888635873795,
        -0.09070871025323868,
        2.287466526031494,
        0.04639817401766777,
        0.044013794511556625,
        -0.15901228785514832,
        1.8654634952545166,
        0.9051830172538757,
        -0.18176697194576263,
        0.1649162620306015,
        -0.39550071954727173,
        -0.31715652346611023,
        -0.3732309639453888,
        0.04890407249331474,
        -0.28924524784088135,
        -0.03148660808801651,
        0.198511004447937,
        -0.33819204568862915,
        0.0261707603931427,
        0.22185325622558594,
        -0.3358492851257324,
        -0.19952820241451263,
        -0.37704166769981384,
        0.1566752791404724,
        0.027592003345489502,
        -0.36049991846084595,
        0.13462954759597778,
        -0.35900047421455383,
        0.36535996198654175,
        -0.22303444147109985,
        -0.3213154375553131,
        -0.041398823261260986,
        -0.04153616353869438,
        -0.14645473659038544,
        0.21384623646736145,
        0.1387353390455246,
        0.19922825694084167,
        0.09211163967847824,
        0.41160449385643005,
        -0.006874468177556992,
        0.11352156847715378,
        -0.09429159760475159,
        -1.0626704692840576,
        -0.015176142565906048,
        0.12425152957439423,
        0.04006986320018768,
        -2.641566514968872,
        -2.8444671630859375,
        -0.3198467493057251,
        -0.2266656458377838,
        -0.3198390305042267,
        -0.2899090647697449,
        0.27299433946609497,
        0.2502264380455017,
        -0.08508801460266113,
        0.2740146517753601,
        -0.05710732936859131,
        -0.3510241210460663,
        -0.036716848611831665,
        -0.3381212651729584,
        -0.14012570679187775,
        0.23098087310791016,
        -0.03516596555709839,
        0.33863669633865356,
        0.026745662093162537,
        -0.07451242953538895,
        -0.4651091992855072,
        -0.13775277137756348,
        -0.256854772567749,
        0.21172556281089783,
        -0.12222757935523987,
        -0.1443130373954773,
        -0.24472546577453613,
        0.05400949344038963,
        -0.932958722114563,
        -0.14717502892017365,
        -0.1454700380563736,
        0.23986342549324036,
        0.18285512924194336,
        0.06014787033200264,
        -0.029707282781600952,
        -0.2256747931241989,
        0.23531007766723633,
        0.06660869717597961,
        -0.03281542658805847,
        0.306911826133728,
        0.10841277241706848,
        0.03151479363441467,
        -0.2994016110897064,
        0.01018214225769043,
        0.00340425968170166,
        -0.09274846315383911,
        -0.054890841245651245,
        0.2806472182273865,
        -0.1478329449892044,
        -0.07513183355331421,
        -0.007408139295876026,
        0.020711515098810196,
        -0.853731632232666,
        -0.10961082577705383,
        -0.005359657108783722,
        0.06178714334964752,
        -2.2736384868621826,
        -2.8465442657470703,
        -0.21496903896331787,
        -0.004144506528973579,
        -1.6147735118865967,
        -0.055431220680475235,
        -0.0748804360628128,
        0.26616013050079346,
        -0.6050539016723633,
        0.4558788537979126
      ]
    },
    {
      "activation": "rectified",
      "architecture": "dense",
      "bias": [],
      "weights": []
    },
    {
      "activation": "linear",
      "architecture": "dense",
      "bias": [
        0.6462026238441467
      ],
      "weights": [
        -0.37271198630332947,
        0.11255842447280884,
        -0.336591899394989,
        -0.8175117373466492,
        -0.22155408561229706,
        0.24910211563110352,
        -0.7757710218429565,
        0.24127167463302612,
        0.28722596168518066,
        -0.9215505123138428,
        -0.006723541300743818,
        0.02903863787651062,
        -0.24887046217918396,
        0.003060606773942709,
        0.23971301317214966,
        -0.206612229347229,
        0.17877274751663208,
        0.10596579313278198,
        -0.9926577806472778,
        0.03700252249836922,
        -0.1826629638671875,
        0.38461238145828247,
        -0.12360329180955887,
        0.0733410120010376,
        -0.3073951005935669,
        0.17281943559646606,
        0.07014355808496475,
        -0.3370745778083801,
        -0.2483111172914505,
        0.014713436365127563,
        0.05008430406451225,
        -0.16417546570301056
      ]
    },
    {
      "activation": "sigmoid",
      "architecture": "dense",
      "bias": [],
      "weights": []
    }
  ],
  "nodes": [
    {
      "layer_index": 1,
      "sources": [
        2
      ],
      "type": "feed_forward"
    },
    {
      "layer_index": 3,
      "sources": [
        3
      ],
      "type": "feed_forward"
    },
    {
      "layer_index": 0,
      "sources": [
        4
      ],
      "type": "feed_forward"
    },
    {
      "layer_index": 2,
      "sources": [
        0
      ],
      "type": "feed_forward"
    },
    {
      "size": 8,
      "sources": [
        0
      ],
      "type": "input"
    }
  ],
  "outputs": {
    "activation_2_0": {
      "labels": [
        "out_0"
      ],
      "node_index": 1
    }
  }
}
