{
  "input_sequences": [],
  "inputs": [
    {
      "name": "node_0",
      "variables": [
        {
          "name": "MET",
          "offset": 0,
          "scale": 1
        },
        {
          "name": "HT",
          "offset": 0,
          "scale": 1
        },
        {
          "name": "dPhiMETdijet",
          "offset": 0,
          "scale": 1
        },
        {
          "name": "pTB1",
          "offset": 0,
          "scale": 1
        },
        {
          "name": "pTB2",
          "offset": 0,
          "scale": 1
        },
        {
          "name": "mBB",
          "offset": 0,
          "scale": 1
        },
        {
          "name": "dRBB",
          "offset": 0,
          "scale": 1
        },
        {
          "name": "dEtaBB",
          "offset": 0,
          "scale": 1
        }
      ]
    }
  ],
  "layers": [
    {
      "activation": "linear",
      "architecture": "dense",
      "bias": [
        0.21653476357460022,
        0.0,
        0.0,
        -1.1911191940307617,
        -3.5388753414154053,
        -0.23303140699863434,
        -0.08756421506404877,
        -0.23175691068172455,
        -0.45069316029548645,
        0.0,
        0.0,
        0.0,
        4.160529136657715,
        -1.114850640296936,
        2.8872628211975098,
        0.0,
        -2.7257988452911377,
        -0.05361412838101387,
        -1.291279673576355,
        0.0,
        -1.3604403734207153,
        0.0,
        -1.3388895988464355,
        -0.8289150595664978,
        0.0,
        -0.0366370715200901,
        -0.20782116055488586,
        -0.03336920961737633,
        -1.5925822257995605,
        -0.0335405096411705,
        -0.1895696371793747,
        -0.47054430842399597
      ],
      "weights": [
        -0.39855873584747314,
        0.2550490200519562,
        0.0230926051735878,
        -0.20573179423809052,
        -0.19625431299209595,
        -0.5508655905723572,
        0.12870489060878754,
        0.30999183654785156,
        -0.24062888324260712,
        -0.10615938901901245,
        -0.21818803250789642,
        -0.2731958031654358,
        0.2511439323425293,
        0.2937028408050537,
        0.12356370687484741,
        -0.13367831707000732,
        0.10360094904899597,
        -0.34474536776542664,
        -0.2662304639816284,
        0.3358404040336609,
        0.15027856826782227,
        -0.2713890075683594,
        0.35304421186447144,
        0.35083556175231934,
        0.08223715424537659,
        -0.05141093209385872,
        -0.9022858738899231,
        -0.10508372634649277,
        0.03947215527296066,
        0.051274675875902176,
        -1.1150301694869995,
        -2.3499879837036133,
        0.12507593631744385,
        -0.24048204720020294,
        -3.742764711380005,
        0.28651881217956543,
        0.2893376052379608,
        0.14830252528190613,
        2.189426898956299,
        3.7665483951568604,
        -0.11576393991708755,
        -0.07063012570142746,
        -0.2571971118450165,
        0.17917576432228088,
        0.216616690158844,
        -0.29659149050712585,
        0.058876559138298035,
        -0.052452631294727325,
        -0.105740025639534,
        0.13438278436660767,
        0.009596242569386959,
        -0.3361804783344269,
        0.08044857531785965,
        -0.19139212369918823,
        -0.31730127334594727,
        -0.2637498080730438,
        -0.006062373053282499,
        -0.24378426373004913,
        -0.5145797729492188,
        0.24296148121356964,
        0.2753259837627411,
        0.1794118881225586,
        0.0641811341047287,
        0.8237762451171875,
        -0.2778383791446686,
        -0.06590845435857773,
        -0.3006454110145569,
        0.20655757188796997,
        0.015719369053840637,
        -0.04326745122671127,
        -0.5449598431587219,
        -0.4192604720592499,
        -0.3171156346797943,
        -0.04820430278778076,
        -0.37867048382759094,
        -0.13952401280403137,
        0.03261139988899231,
        -0.35132062435150146,
        -0.1283227503299713,
        -0.17148196697235107,
        -0.24355994164943695,
        -0.2797027826309204,
        0.027156323194503784,
        0.07204419374465942,
        0.24622726440429688,
        0.28278636932373047,
        0.3681579828262329,
        0.1263887882232666,
        -0.2776358127593994,
        -0.08960896730422974,
        -0.15036606788635254,
        -0.2456037402153015,
        -0.09878197312355042,
        -0.19046443700790405,
        -0.3721573054790497,
        0.3707677721977234,
        -0.04004676267504692,
        -0.01744198240339756,
        3.9443342685699463,
        -0.00846895482391119,
        0.004338503815233707,
        -0.28467074036598206,
        3.7784175872802734,
        1.9657962322235107,
        -0.18102885782718658,
        0.06849826872348785,
        -1.490201711654663,
        -0.2022271305322647,
        -0.3287283182144165,
        0.2394285500049591,
        -0.23519748449325562,
        0.1573171466588974,
        -0.0675254538655281,
        0.03779630362987518,
        2.6525704860687256,
        -0.07656966894865036,
        -0.06972267478704453,
        -0.22383832931518555,
        3.1338324546813965,
        2.30391001701355,
        -0.2772747278213501,
        -0.34360161423683167,
        0.22817665338516235,
        -0.366288423538208,
        0.13192325830459595,
        -0.29101327061653137,
        -0.3224509358406067,
        0.3587384819984436,
        0.030619977042078972,
        -0.12295587360858917,
        -2.8750879764556885,
        0.10691313445568085,
        0.07563728094100952,
        0.14505590498447418,
        -0.5837191343307495,
        0.757805585861206,
        0.06280539929866791,
        -0.07890009880065918,
        -0.4287166893482208,
        0.020015403628349304,
        -0.087238609790802,
        0.07704076915979385,
        -0.13264814019203186,
        -0.19081465899944305,
        -0.008161213248968124,
        0.016968654468655586,
        -0.796466052532196,
        -0.05563461035490036,
        0.024282267317175865,
        0.11227436363697052,
        -4.109166145324707,
        -3.4512548446655273,
        -0.0824393630027771,
        -0.10624992847442627,
        -0.21526183187961578,
        -0.30106300115585327,
        0.36160242557525635,
        -0.35183092951774597,
        0.34586864709854126,
        0.1157037615776062,
        -0.3692358732223511,
        0.058240652084350586,
        -1.643246054649353,
        -0.0786370187997818,
        -0.054246000945568085,
        0.25077828764915466,
        0.5426182150840759,
        1.6423109769821167,
        -0.34101369976997375,
        0.07954150438308716,
        0.008096098899841309,
        -0.29410019516944885,
        -0.09756553173065186,
        -0.2357790470123291,
        0.13487815856933594,
        -0.23872549831867218,
        -0.05329600349068642,
        -0.22054611146450043,
        -1.2288426160812378,
        0.13184630870819092,
        0.16913039982318878,
        0.3108745515346527,
        -0.22086547315120697,
        0.47544872760772705,
        -0.2718444764614105,
        0.06630085408687592,
        -0.9496406316757202,
        -0.09018812328577042,
        -0.08004992455244064,
        0.17546971142292023,
        -0.2853122353553772,
        -0.03744082152843475,
        -0.33424219489097595,
        0.09173831343650818,
        0.047847628593444824,
        -0.11636650562286377,
        0.22003376483917236,
        -0.3795381784439087,
        0.07551875710487366,
        0.1929948925971985,
        0.2334548681974411,
        -0.4209076166152954,
        -0.07602623105049133,
        0.2933826446533203,
        -0.05964633822441101,
        0.3018103539943695,
        -0.1939650923013687,
        -0.2041134238243103,
        -0.3460506796836853,
        0.07394281774759293,
        0.05207725614309311,
        0.0019462932832539082,
        0.02656714804470539,
        -0.09021811932325363,
        -0.1939198523759842,
        -0.0383436419069767,
        -0.43089213967323303,
        -0.10449053347110748,
        0.28859421610832214,
        0.22888408601284027,
        0.14074167609214783,
        0.15281347930431366,
        -0.33151429891586304,
        0.14037658274173737,
        -0.02364351600408554,
        0.009279856458306313,
        -1.2152599096298218,
        -0.0707085058093071,
        0.00469916732981801,
        0.08033043891191483,
        -3.576577663421631,
        -3.4611904621124268,
        -0.10568207502365112,
        -0.20582357048988342,
        -0.21013112366199493,
        0.33802834153175354,
        -0.3312995433807373,
        0.035957999527454376,
        0.31180039048194885,
        -0.2953117787837982,
        -0.07949845492839813,
        0.017948923632502556,
        -0.23985882103443146,
        0.0227921474725008,
        -0.4092526435852051,
        0.0026260402519255877,
        0.03829820826649666,
        0.06926248222589493,
        -0.04108177125453949,
        -0.0008754113223403692,
        -0.6096447706222534,
        -0.024559248238801956,
        -0.01418392825871706,
        0.06513012945652008,
        -0.3014201819896698,
        -0.49244406819343567
      ]
    },
    {
      "activation": "rectified",
      "architecture": "dense",
      "bias": [],
      "weights": []
    },
    {
      "activation": "linear",
      "architecture": "dense",
      "bias": [
        0.4756416082382202
      ],
      "weights": [
        -0.019453972578048706,
        0.37033581733703613,
        0.33507853746414185,
        0.01957724243402481,
        -0.6079738736152649,
        0.012287652119994164,
        0.27687591314315796,
        -0.4122617244720459,
        0.0012061863671988249,
        -0.23059989511966705,
        0.300589382648468,
        0.30661576986312866,
        -0.6414815783500671,
        -0.0876665711402893,
        -0.7811722159385681,
        0.07917410135269165,
        -0.4569852948188782,
        0.1339631825685501,
        0.1490284502506256,
        0.11154115200042725,
        -0.2556315064430237,
        0.09489762783050537,
        -0.24285006523132324,
        -0.4589875340461731,
        0.4008229374885559,
        0.111075259745121,
        -0.1814202070236206,
        0.014332987368106842,
        0.15993466973304749,
        0.21403637528419495,
        -0.09269661456346512,
        0.01124018058180809
      ]
    },
    {
      "activation": "sigmoid",
      "architecture": "dense",
      "bias": [],
      "weights": []
    }
  ],
  "nodes": [
    {
      "layer_index": 1,
      "sources": [
        2
      ],
      "type": "feed_forward"
    },
    {
      "layer_index": 3,
      "sources": [
        3
      ],
      "type": "feed_forward"
    },
    {
      "layer_index": 0,
      "sources": [
        4
      ],
      "type": "feed_forward"
    },
    {
      "layer_index": 2,
      "sources": [
        0
      ],
      "type": "feed_forward"
    },
    {
      "size": 8,
      "sources": [
        0
      ],
      "type": "input"
    }
  ],
  "outputs": {
    "activation_2_0": {
      "labels": [
        "out_0"
      ],
      "node_index": 1
    }
  }
}
