{
  "input_sequences": [],
  "inputs": [
    {
      "name": "node_0",
      "variables": [
        {
          "name": "MET",
          "offset": -208.83921496998445,
          "scale": 0.01720276216419413
        },
        {
          "name": "HT",
          "offset": -473.89440093977254,
          "scale": 0.008021898588230806
        },
        {
          "name": "dPhiMETdijet",
          "offset": -2.939522139033092,
          "scale": 5.196846874774234
        },
        {
          "name": "pTB1",
          "offset": -161.36708253272997,
          "scale": 0.014701983797030473
        },
        {
          "name": "pTB2",
          "offset": -47.25237942600097,
          "scale": 0.03543615422655223
        },
        {
          "name": "mBB",
          "offset": -124.58883578394065,
          "scale": 0.01869979064007821
        },
        {
          "name": "dRBB",
          "offset": -1.6063714596618275,
          "scale": 1.4129303379231053
        },
        {
          "name": "dEtaBB",
          "offset": -1.0131435493007517,
          "scale": 1.5464820093479097
        },
        {
          "name": "pTJ3",
          "offset": -55.57230798800692,
          "scale": 0.02484571273131394
        },
        {
          "name": "mBBJ",
          "offset": -342.52615682334914,
          "scale": 0.004218440393841809
        }
      ]
    }
  ],
  "layers": [
    {
      "activation": "linear",
      "architecture": "dense",
      "bias": [
        -1.3501209020614624,
        -4.105142593383789,
        2.580676794052124,
        -1.962627649307251,
        -3.1803231239318848,
        1.1104152202606201,
        -0.5589038133621216,
        0.4726453423500061,
        -1.5462440252304077,
        -3.2581093311309814,
        -2.8406567573547363,
        2.9865567684173584,
        -0.620050847530365,
        1.1313776969909668,
        -3.33485746383667,
        -2.7035186290740967,
        2.3800642490386963,
        -2.854572057723999,
        0.13281598687171936,
        -0.7296336889266968,
        1.280005693435669,
        -0.9078763723373413,
        3.555528163909912,
        4.198349475860596,
        -5.616407871246338,
        -3.0569021701812744,
        -3.2649779319763184,
        -3.918128728866577,
        -2.3705501556396484,
        -5.248688220977783,
        -0.7705156207084656,
        -4.647146224975586
      ],
      "weights": [
        1.4267479181289673,
        -3.1043355464935303,
        0.014328951947391033,
        1.5901864767074585,
        0.6667681932449341,
        0.35682615637779236,
        -0.18447892367839813,
        0.0029908539727330208,
        1.0962003469467163,
        -1.7699384689331055,
        -0.8826504349708557,
        -1.9846760034561157,
        0.035182952880859375,
        -0.14144152402877808,
        0.18304049968719482,
        4.0205888748168945,
        0.13637781143188477,
        -0.5247204303741455,
        1.4454576969146729,
        -2.4855518341064453,
        0.3676304221153259,
        -1.3278645277023315,
        -1.2463269233703613,
        1.4083178043365479,
        2.2696263790130615,
        1.0206620693206787,
        1.7966563701629639,
        -0.25436654686927795,
        1.069329857826233,
        4.787574291229248,
        -0.20876148343086243,
        -0.12773695588111877,
        0.46976909041404724,
        0.626368522644043,
        0.3344690799713135,
        -3.2625935077667236,
        0.5962632298469543,
        0.3920089602470398,
        -0.950191080570221,
        0.306917667388916,
        -0.442198783159256,
        -1.4781090021133423,
        -0.4899596869945526,
        0.7873305678367615,
        -0.8328884840011597,
        -2.6932082176208496,
        1.3444068431854248,
        2.2710607051849365,
        0.5270006656646729,
        0.5228081345558167,
        1.7856723070144653,
        -2.6195952892303467,
        -0.4510049819946289,
        1.676514983177185,
        1.296371579170227,
        2.005333423614502,
        -0.9170422554016113,
        -0.04342091083526611,
        0.618632435798645,
        -0.06335079669952393,
        1.2000014781951904,
        -3.6216111183166504,
        0.2966823875904083,
        1.092293381690979,
        1.8466707468032837,
        2.325064182281494,
        -0.8888466954231262,
        0.16396427154541016,
        1.2582786083221436,
        -1.5448640584945679,
        0.837995707988739,
        -2.304871082305908,
        2.7691245079040527,
        2.446176528930664,
        2.1118388175964355,
        1.3458244800567627,
        0.5044035911560059,
        -0.7475516200065613,
        -3.6073548793792725,
        0.21517473459243774,
        -0.1885557323694229,
        0.09120479971170425,
        -0.5477032661437988,
        0.5754432082176208,
        0.4081926643848419,
        -3.9077420234680176,
        0.30519330501556396,
        0.008777446113526821,
        -0.9160344004631042,
        0.42353978753089905,
        0.09084653854370117,
        -0.13408155739307404,
        -1.3002212047576904,
        0.4849236011505127,
        0.871425211429596,
        -4.113009452819824,
        0.8112851977348328,
        0.4659841060638428,
        -0.6224205493927002,
        0.7331635355949402,
        -0.18150165677070618,
        -1.8542946577072144,
        -0.9398203492164612,
        0.6003389954566956,
        1.4932738542556763,
        4.4214863777160645,
        1.4204736948013306,
        -0.001187967020086944,
        -0.8249331116676331,
        0.5566018223762512,
        0.5096809267997742,
        -0.7811077833175659,
        -1.1753941774368286,
        1.3946402072906494,
        1.9681243896484375,
        0.9605638980865479,
        1.3162685632705688,
        -0.3857019543647766,
        0.5757593512535095,
        4.333592414855957,
        -0.03599471226334572,
        0.10526210814714432,
        0.06595929712057114,
        -0.4878292679786682,
        -0.2649139165878296,
        3.326845645904541,
        -0.5091284513473511,
        -0.256521075963974,
        0.06194125860929489,
        -0.031724944710731506,
        1.0437699556350708,
        -1.8389662504196167,
        0.48994824290275574,
        2.0526556968688965,
        1.6901934146881104,
        1.27742338180542,
        -0.36961135268211365,
        -0.12711971998214722,
        -1.067356824874878,
        -1.0111006498336792,
        -0.5138497948646545,
        -0.4243997633457184,
        -0.10085830837488174,
        0.3177565336227417,
        -0.6789836883544922,
        2.857367515563965,
        0.23717816174030304,
        -0.5816093683242798,
        1.3026400804519653,
        -3.496436834335327,
        -0.3444340229034424,
        0.16381791234016418,
        0.5836719274520874,
        0.2704686224460602,
        0.49976155161857605,
        3.044186592102051,
        -0.5089353322982788,
        0.36507290601730347,
        -0.21369265019893646,
        0.2846958637237549,
        1.5914440155029297,
        -1.6869239807128906,
        -1.1110576391220093,
        2.2841384410858154,
        1.9460753202438354,
        1.8066400289535522,
        -0.10131829977035522,
        0.16112545132637024,
        -0.3512921929359436,
        0.5247082710266113,
        0.4997789263725281,
        -1.1221574544906616,
        -0.8197785019874573,
        0.9296420216560364,
        -0.3663940727710724,
        -4.697315216064453,
        -0.6406376361846924,
        -0.7732762098312378,
        0.03830992802977562,
        1.1879843473434448,
        -0.6732655763626099,
        -3.864408254623413,
        3.35386323928833,
        0.954575777053833,
        2.6360623836517334,
        2.8517117500305176,
        0.6557660102844238,
        -1.087829828262329,
        -4.021767616271973,
        1.48883855342865,
        -0.7106475234031677,
        1.0709172487258911,
        -0.15096241235733032,
        -0.1549105942249298,
        0.1339886337518692,
        -2.985602617263794,
        0.49990010261535645,
        0.1031346544623375,
        -0.7710471153259277,
        0.22882919013500214,
        0.6578838229179382,
        -2.329277753829956,
        3.0694289207458496,
        1.9563623666763306,
        2.0684289932250977,
        1.5543427467346191,
        0.0844903439283371,
        -0.44323548674583435,
        -3.913644552230835,
        0.0363713763654232,
        -0.06124409660696983,
        0.2085384726524353,
        0.04964703693985939,
        -0.4756532907485962,
        -0.21369926631450653,
        3.3331780433654785,
        -0.555463433265686,
        -0.2626068890094757,
        0.020444951951503754,
        0.03373336419463158,
        0.3847651481628418,
        -1.2056399583816528,
        -1.7228400707244873,
        2.4291281700134277,
        2.764709234237671,
        2.224987745285034,
        0.943492591381073,
        -0.427253782749176,
        0.6955413818359375,
        4.026678562164307,
        0.8204094171524048,
        -0.8469241261482239,
        -1.7013803720474243,
        2.7952919006347656,
        2.8528153896331787,
        2.7823362350463867,
        0.3457548916339874,
        -0.23600611090660095,
        -0.712871253490448,
        2.2166833877563477,
        0.15422631800174713,
        -0.46787381172180176,
        -1.6680223941802979,
        2.458441734313965,
        1.9799408912658691,
        3.206339120864868,
        4.488924503326416,
        1.6636040210723877,
        -0.6767056584358215,
        2.8608033657073975,
        -0.6317474842071533,
        -1.5235261917114258,
        0.3435960114002228,
        0.5404313206672668,
        -0.4579780697822571,
        -1.5036603212356567,
        0.07860901206731796,
        -0.1356203705072403,
        1.5331554412841797,
        0.8973047733306885,
        0.3497427701950073,
        -0.4122251272201538,
        -1.3273471593856812,
        1.1348382234573364,
        0.8696728944778442,
        3.2970638275146484,
        1.754987120628357,
        -0.12952588498592377,
        -0.7010783553123474,
        1.2542825937271118,
        0.6699777245521545,
        -0.7752564549446106,
        -0.7726801633834839,
        0.6695005893707275,
        -1.0173283815383911,
        -5.202569961547852,
        0.3285234272480011,
        -0.6181316375732422,
        0.8711206912994385,
        1.0783661603927612,
        -0.1784559190273285,
        -0.4592970609664917,
        0.8589763045310974,
        0.20589515566825867,
        0.37748685479164124,
        -1.961860179901123,
        0.37743130326271057,
        0.0633082389831543,
        -0.3578777313232422,
        0.08279888331890106,
        0.9939793944358826,
        0.6269283294677734,
        -1.188187837600708,
        -0.8219344615936279,
        0.05603387951850891,
        -4.738927841186523,
        0.7562417984008789,
        -0.034533675760030746,
        -0.4133375585079193,
        0.8963510990142822,
        -0.12118355184793472,
        0.5049693584442139,
        0.07007559388875961,
        -0.7140878438949585,
        -0.40550661087036133,
        3.902707576751709,
        -0.5141797661781311,
        -0.28223809599876404,
        -0.023924319073557854,
        0.05996187403798103,
        -0.8328050971031189,
        -2.7321767807006836,
        -1.0915250778198242,
        1.5540252923965454,
        1.6097385883331299,
        -4.04828405380249,
        0.3041263520717621,
        -0.05399463698267937,
        0.4587564468383789,
        0.365283727645874
      ]
    },
    {
      "activation": "rectified",
      "architecture": "dense",
      "bias": [],
      "weights": []
    },
    {
      "activation": "linear",
      "architecture": "dense",
      "bias": [
        -0.3753059506416321
      ],
      "weights": [
        3.189167022705078,
        -0.8482482433319092,
        0.07433081418275833,
        -0.5773971676826477,
        -0.8797447085380554,
        0.13952980935573578,
        0.11977528780698776,
        0.024150053039193153,
        -0.24000491201877594,
        -0.2841475307941437,
        -0.31745633482933044,
        0.040880102664232254,
        -0.6366799473762512,
        0.0727691650390625,
        -0.5169690251350403,
        -0.8049551844596863,
        0.09194368869066238,
        -0.14510226249694824,
        0.03876868262887001,
        -0.3704761564731598,
        0.01064933743327856,
        -0.6563252210617065,
        0.03154272958636284,
        0.02889038808643818,
        -0.15159165859222412,
        -1.2147880792617798,
        -0.26707276701927185,
        0.020853184163570404,
        -2.343475341796875,
        -0.21578823029994965,
        -0.43715065717697144,
        -0.21492546796798706
      ]
    },
    {
      "activation": "sigmoid",
      "architecture": "dense",
      "bias": [],
      "weights": []
    }
  ],
  "nodes": [
    {
      "layer_index": 1,
      "sources": [
        2
      ],
      "type": "feed_forward"
    },
    {
      "layer_index": 3,
      "sources": [
        3
      ],
      "type": "feed_forward"
    },
    {
      "layer_index": 0,
      "sources": [
        4
      ],
      "type": "feed_forward"
    },
    {
      "layer_index": 2,
      "sources": [
        0
      ],
      "type": "feed_forward"
    },
    {
      "size": 10,
      "sources": [
        0
      ],
      "type": "input"
    }
  ],
  "outputs": {
    "activation_2_0": {
      "labels": [
        "out_0"
      ],
      "node_index": 1
    }
  }
}
