{
  "input_sequences": [],
  "inputs": [
    {
      "name": "node_0",
      "variables": [
        {
          "name": "MET",
          "offset": -208.90438150684483,
          "scale": 0.01718988780508746
        },
        {
          "name": "HT",
          "offset": -473.95532227743075,
          "scale": 0.008025296731988641
        },
        {
          "name": "dPhiMETdijet",
          "offset": -2.939545557390976,
          "scale": 5.195981507273873
        },
        {
          "name": "pTB1",
          "offset": -161.34742633560649,
          "scale": 0.014699455236117653
        },
        {
          "name": "pTB2",
          "offset": -47.26133882725605,
          "scale": 0.03542366887252953
        },
        {
          "name": "mBB",
          "offset": -124.5287992153131,
          "scale": 0.01869495373356827
        },
        {
          "name": "dRBB",
          "offset": -1.6058172140391138,
          "scale": 1.412151284977716
        },
        {
          "name": "dEtaBB",
          "offset": -1.0132852465847553,
          "scale": 1.5462137335573252
        },
        {
          "name": "pTJ3",
          "offset": -55.577233811504406,
          "scale": 0.02484315469328499
        },
        {
          "name": "mBBJ",
          "offset": -342.32912314342803,
          "scale": 0.004217630711982932
        }
      ]
    }
  ],
  "layers": [
    {
      "activation": "linear",
      "architecture": "dense",
      "bias": [
        -1.4105123281478882,
        -4.052852153778076,
        2.381760835647583,
        -3.8419528007507324,
        -3.760371446609497,
        3.166538953781128,
        -0.6992740631103516,
        0.9431143999099731,
        -1.8824726343154907,
        -0.8749621510505676,
        -2.6373250484466553,
        -0.5999563932418823,
        -0.49388587474823,
        1.1073355674743652,
        -2.7998764514923096,
        -3.7430808544158936,
        0.6878035664558411,
        -2.366384506225586,
        -0.08468461036682129,
        -2.9978108406066895,
        0.6325260996818542,
        0.8925984501838684,
        0.8624652624130249,
        3.054586887359619,
        -1.4357457160949707,
        -3.049380302429199,
        -0.7343885898590088,
        -4.535740852355957,
        -0.7267161011695862,
        -4.384137153625488,
        -0.751954197883606,
        -0.539149284362793
      ],
      "weights": [
        1.295104742050171,
        -2.747814178466797,
        -0.03635977953672409,
        1.4581547975540161,
        0.667220413684845,
        0.2013414055109024,
        -0.020394574850797653,
        0.030078725889325142,
        1.0015487670898438,
        -1.8719960451126099,
        -1.2163052558898926,
        -1.8053439855575562,
        0.15482138097286224,
        -0.02930319868028164,
        1.0694979429244995,
        3.0655572414398193,
        0.7424828410148621,
        -0.22357437014579773,
        1.3585820198059082,
        -1.2740415334701538,
        0.40738487243652344,
        -1.0848468542099,
        -0.6898048520088196,
        1.6762948036193848,
        1.4716355800628662,
        0.6158536672592163,
        0.7239689826965332,
        0.06822741776704788,
        0.37235647439956665,
        2.656346082687378,
        0.8664658665657043,
        -0.8097176551818848,
        -0.6715273857116699,
        0.49696847796440125,
        0.5714083909988403,
        -3.9536349773406982,
        0.41480687260627747,
        -0.19122539460659027,
        0.375188946723938,
        0.920812726020813,
        -0.43423202633857727,
        -2.274592638015747,
        -0.8001182079315186,
        0.8849291205406189,
        -0.3217427730560303,
        -2.6205499172210693,
        1.4900884628295898,
        1.8913145065307617,
        0.6906009912490845,
        0.5838297009468079,
        0.21294227242469788,
        -1.1865485906600952,
        -0.9102869033813477,
        2.2177531719207764,
        1.7118014097213745,
        1.2443910837173462,
        0.2972416579723358,
        0.15132863819599152,
        0.13890421390533447,
        2.8177335262298584,
        0.5547923445701599,
        -2.6733551025390625,
        0.008825801312923431,
        0.03501397371292114,
        2.124781847000122,
        1.2244616746902466,
        -0.06410855054855347,
        1.0702016353607178,
        0.8944162130355835,
        -0.7358697056770325,
        1.086877703666687,
        -1.3837090730667114,
        1.897873044013977,
        1.295102596282959,
        1.3190418481826782,
        0.19033020734786987,
        -0.1093672588467598,
        -0.882009744644165,
        -2.9950602054595947,
        -0.8560670018196106,
        0.08049671351909637,
        0.05243633687496185,
        0.5470515489578247,
        0.19711165130138397,
        0.2700369954109192,
        -2.260725498199463,
        0.5192010402679443,
        0.10538452118635178,
        -0.8653552532196045,
        0.21059611439704895,
        -0.5980472564697266,
        0.329895943403244,
        0.1500789076089859,
        0.2681508958339691,
        0.30569231510162354,
        -2.4963085651397705,
        0.2640443444252014,
        0.16049905121326447,
        -0.4486101269721985,
        0.3630288541316986,
        -0.11433427780866623,
        -1.5550414323806763,
        -0.6590319275856018,
        0.8001490235328674,
        1.9951986074447632,
        4.421065807342529,
        2.7412028312683105,
        0.8923471570014954,
        -0.5267907381057739,
        0.9583150744438171,
        -1.7154501676559448,
        -3.081428050994873,
        0.7926093935966492,
        -0.6364175081253052,
        3.066122055053711,
        1.996732473373413,
        1.3031796216964722,
        -1.7254486083984375,
        -3.2830591201782227,
        2.020998239517212,
        0.2184574007987976,
        -0.4865012466907501,
        0.14752820134162903,
        0.10944200307130814,
        -0.07271122932434082,
        2.5554747581481934,
        -0.21919521689414978,
        -0.06280218809843063,
        0.3188802897930145,
        0.0961466059088707,
        1.0374330282211304,
        -1.6235841512680054,
        -0.21026313304901123,
        1.4882724285125732,
        1.3516613245010376,
        0.9216235876083374,
        -0.03993772342801094,
        0.2512044906616211,
        0.6137968301773071,
        -0.04989910125732422,
        -0.1252896636724472,
        -0.6339597105979919,
        -0.2769637107849121,
        0.11549204587936401,
        -0.23703761398792267,
        2.0436315536499023,
        0.19393859803676605,
        -0.5230317711830139,
        0.878248929977417,
        -2.9061501026153564,
        0.11906825006008148,
        -0.2297796756029129,
        -0.23657622933387756,
        1.400033712387085,
        1.0088553428649902,
        2.046844959259033,
        2.439685821533203,
        0.08697357028722763,
        -0.1052519753575325,
        1.5548315048217773,
        1.2943785190582275,
        -1.7317885160446167,
        0.00409857090562582,
        0.907260537147522,
        1.1091790199279785,
        0.8403207659721375,
        0.012610351666808128,
        -0.2415018230676651,
        0.46951887011528015,
        0.06042405217885971,
        0.15721742808818817,
        -0.5717674493789673,
        0.7065777778625488,
        0.047199346125125885,
        0.35149306058883667,
        -1.837470531463623,
        0.4180765151977539,
        0.05689447000622749,
        -0.6777169108390808,
        0.04471149295568466,
        0.549862265586853,
        -2.436177968978882,
        1.637318730354309,
        0.8615226745605469,
        0.9365288615226746,
        0.8052869439125061,
        -0.22194190323352814,
        -0.5241740942001343,
        -3.330308437347412,
        0.483470618724823,
        -1.040736198425293,
        -0.8755151033401489,
        -1.2846429347991943,
        0.6152309775352478,
        0.7572166323661804,
        -2.8676607608795166,
        -0.3163684606552124,
        0.2250073254108429,
        -0.5156828165054321,
        0.09178709238767624,
        0.07692896574735641,
        -1.439810872077942,
        0.6619089245796204,
        2.445117235183716,
        1.175680160522461,
        0.9485442638397217,
        -0.21226540207862854,
        -0.7126966714859009,
        -3.0740535259246826,
        -0.022141210734844208,
        1.4314470291137695,
        -1.8982750177383423,
        0.07435857504606247,
        1.0533084869384766,
        0.9746594429016113,
        1.532039999961853,
        -0.8944904208183289,
        0.13818195462226868,
        0.573310911655426,
        0.11427323520183563,
        -1.063319206237793,
        -0.48978954553604126,
        -2.362097978591919,
        0.8883944749832153,
        3.2016994953155518,
        2.4980788230895996,
        1.2113587856292725,
        -0.6961315870285034,
        1.9991223812103271,
        5.032615661621094,
        -0.4537713825702667,
        -0.06553062796592712,
        -2.2447547912597656,
        2.7195212841033936,
        2.3809263706207275,
        2.5410830974578857,
        1.0059517621994019,
        -0.4561850130558014,
        0.9190946221351624,
        4.37882661819458,
        0.29740002751350403,
        -0.7478035688400269,
        -0.5592892169952393,
        0.5079118609428406,
        0.5536730885505676,
        2.5271425247192383,
        0.18706654012203217,
        -0.18207691609859467,
        -0.4119929075241089,
        0.2541152238845825,
        -0.4090551733970642,
        -1.7437647581100464,
        0.1579420119524002,
        0.38236138224601746,
        -0.8044862747192383,
        -0.7506386637687683,
        -0.4783618450164795,
        -0.14550483226776123,
        1.582706332206726,
        0.9313458204269409,
        0.21252164244651794,
        -0.5938207507133484,
        0.1312589794397354,
        0.14689059555530548,
        0.023635877296328545,
        2.8556535243988037,
        -0.4234568476676941,
        -0.13290917873382568,
        0.3009481728076935,
        0.055631063878536224,
        0.10245794802904129,
        -0.43403249979019165,
        -1.0297893285751343,
        0.7134820818901062,
        0.0929955318570137,
        -4.206421852111816,
        -0.7539814114570618,
        0.03864476829767227,
        0.5350018739700317,
        1.6741158962249756,
        -0.458209365606308,
        0.40809229016304016,
        -0.17813730239868164,
        0.16822484135627747,
        0.2568116784095764,
        -2.267867088317871,
        0.15381944179534912,
        0.09962477535009384,
        -0.4490317404270172,
        0.3156135678291321,
        0.8352285623550415,
        -0.47337958216667175,
        -0.7787379026412964,
        -0.2094641923904419,
        0.6781544089317322,
        -3.995880603790283,
        0.19656403362751007,
        -0.048303261399269104,
        0.31688469648361206,
        1.1059305667877197,
        -0.038214921951293945,
        0.003036258276551962,
        0.1793893426656723,
        -0.21714895963668823,
        -0.11034984141588211,
        2.9832570552825928,
        -0.4412437677383423,
        -0.21701808273792267,
        0.020289326086640358,
        0.05949195846915245,
        -0.43675878643989563,
        0.5557020306587219,
        -0.31909990310668945,
        0.009224236011505127,
        0.13944858312606812,
        -2.1012282371520996,
        0.38656356930732727,
        -0.02160441130399704,
        -0.5359299182891846,
        0.10846710205078125
      ]
    },
    {
      "activation": "rectified",
      "architecture": "dense",
      "bias": [],
      "weights": []
    },
    {
      "activation": "linear",
      "architecture": "dense",
      "bias": [
        -0.5332147479057312
      ],
      "weights": [
        3.5082552433013916,
        -0.5924206376075745,
        0.046006545424461365,
        -0.14590930938720703,
        -0.7829195857048035,
        0.0883185863494873,
        0.06879661977291107,
        0.046023912727832794,
        -1.101852536201477,
        -0.5098660588264465,
        -0.18996568024158478,
        0.03291722387075424,
        -0.6532415151596069,
        0.07888747751712799,
        -1.0295490026474,
        -0.42407676577568054,
        0.06776343286037445,
        -2.056595802307129,
        0.11731304228305817,
        -0.26300013065338135,
        0.07938750833272934,
        0.17244042456150055,
        0.050408948212862015,
        0.054901424795389175,
        -0.6145973801612854,
        -1.1685925722122192,
        -0.6927580833435059,
        -0.13431347906589508,
        -0.5126287341117859,
        -0.24946048855781555,
        -0.7112224102020264,
        -0.4229753017425537
      ]
    },
    {
      "activation": "sigmoid",
      "architecture": "dense",
      "bias": [],
      "weights": []
    }
  ],
  "nodes": [
    {
      "layer_index": 1,
      "sources": [
        2
      ],
      "type": "feed_forward"
    },
    {
      "layer_index": 3,
      "sources": [
        3
      ],
      "type": "feed_forward"
    },
    {
      "layer_index": 0,
      "sources": [
        4
      ],
      "type": "feed_forward"
    },
    {
      "layer_index": 2,
      "sources": [
        0
      ],
      "type": "feed_forward"
    },
    {
      "size": 10,
      "sources": [
        0
      ],
      "type": "input"
    }
  ],
  "outputs": {
    "activation_2_0": {
      "labels": [
        "out_0"
      ],
      "node_index": 1
    }
  }
}
