{
  "input_sequences": [],
  "inputs": [
    {
      "name": "node_0",
      "variables": [
        {
          "name": "MET",
          "offset": -207.13908982604508,
          "scale": 0.017016022487110254
        },
        {
          "name": "HT",
          "offset": -440.6307900849475,
          "scale": 0.008107641942045673
        },
        {
          "name": "dPhiMETdijet",
          "offset": -3.091639027485363,
          "scale": 18.60461814226375
        },
        {
          "name": "pTB1",
          "offset": -183.75157082988537,
          "scale": 0.0157120515300652
        },
        {
          "name": "pTB2",
          "offset": -49.3907163410235,
          "scale": 0.03318770044383849
        },
        {
          "name": "mBB",
          "offset": -123.52574048971823,
          "scale": 0.02084538944764979
        },
        {
          "name": "dRBB",
          "offset": -1.4987335523761562,
          "scale": 1.5319030123931696
        },
        {
          "name": "dEtaBB",
          "offset": -0.9348656347545974,
          "scale": 1.7487870748247627
        }
      ]
    }
  ],
  "layers": [
    {
      "activation": "linear",
      "architecture": "dense",
      "bias": [
        3.4308788776397705,
        -1.938076138496399,
        3.3350486755371094,
        -0.8949851393699646,
        -3.677841901779175,
        2.9936909675598145,
        3.10754132270813,
        0.7682311534881592,
        -1.592560052871704,
        -2.1463515758514404,
        -1.0664318799972534,
        1.0590022802352905,
        -2.4882314205169678,
        3.5661163330078125,
        0.9459592700004578,
        -2.2789664268493652,
        2.5798397064208984,
        -2.5313825607299805,
        4.069026947021484,
        -2.3590946197509766,
        3.4511971473693848,
        -1.5389155149459839,
        2.800900936126709,
        2.1406803131103516,
        -2.546686887741089,
        -2.001850128173828,
        -1.7093333005905151,
        -3.3736658096313477,
        -2.2660086154937744,
        -1.5345500707626343,
        -2.4777088165283203,
        -2.0992352962493896
      ],
      "weights": [
        0.8121410012245178,
        0.8611714243888855,
        -0.967955470085144,
        -0.33153191208839417,
        2.050421953201294,
        1.198525309562683,
        1.819687843322754,
        0.04427521303296089,
        0.1603412926197052,
        0.1405448466539383,
        1.0524674654006958,
        -0.4996502995491028,
        0.25675979256629944,
        -2.189095973968506,
        0.6730779409408569,
        -0.07910078763961792,
        0.5599092245101929,
        0.8208323121070862,
        -0.686123788356781,
        0.1295110583305359,
        2.1043055057525635,
        1.4834338426589966,
        1.962906002998352,
        0.25453585386276245,
        -0.060206953436136246,
        0.33342990279197693,
        -0.02970791794359684,
        0.10489283502101898,
        0.38255199790000916,
        -3.555109739303589,
        0.9040435552597046,
        0.2634598910808563,
        1.0113893747329712,
        -0.2818586230278015,
        -1.1465920209884644,
        -0.015603491105139256,
        -0.04997064545750618,
        -4.895860195159912,
        -0.3494868874549866,
        -0.30427876114845276,
        1.0233880281448364,
        1.4707255363464355,
        -1.5641212463378906,
        -0.3400447964668274,
        2.7700917720794678,
        1.643715500831604,
        1.9244155883789062,
        -1.1025207042694092,
        0.30186453461647034,
        0.8311519026756287,
        -0.4630949795246124,
        0.2981065511703491,
        2.0985333919525146,
        1.4961557388305664,
        2.158240556716919,
        -0.08532503247261047,
        0.060315441340208054,
        0.02780851349234581,
        5.620212078094482,
        -0.6237168908119202,
        2.551506519317627,
        1.3200503587722778,
        1.5653111934661865,
        -1.0861040353775024,
        -0.1446155458688736,
        0.4561198055744171,
        -0.07685033977031708,
        0.021974822506308556,
        0.5468504428863525,
        -3.722937822341919,
        0.6152049899101257,
        -0.005692845210433006,
        0.17868486046791077,
        -0.07484599947929382,
        -0.2233104407787323,
        -1.2796778678894043,
        -0.886741578578949,
        -0.659294843673706,
        1.8195207118988037,
        0.22802980244159698,
        0.05131601169705391,
        0.18219918012619019,
        -0.10049509257078171,
        0.17043188214302063,
        0.406404048204422,
        -2.97650408744812,
        0.7820130586624146,
        0.15994355082511902,
        -3.658393621444702,
        -2.1893444061279297,
        -1.2885125875473022,
        -1.3660821914672852,
        4.934531211853027,
        2.916062831878662,
        2.4610655307769775,
        -0.9537397623062134,
        0.2268751859664917,
        -0.5420428514480591,
        0.04932283237576485,
        1.2317708730697632,
        0.5864694118499756,
        1.4465014934539795,
        2.048023223876953,
        -0.4618206322193146,
        0.8190670609474182,
        2.348522186279297,
        -2.0914106369018555,
        0.04264066740870476,
        3.455209493637085,
        1.965819001197815,
        3.530759334564209,
        -1.8230749368667603,
        0.24844683706760406,
        0.24237781763076782,
        -0.48976969718933105,
        0.5352040529251099,
        0.8252122402191162,
        1.1705414056777954,
        2.624462842941284,
        0.6898598670959473,
        0.635632336139679,
        -0.792076826095581,
        -0.5942812561988831,
        0.7734066843986511,
        1.1875617504119873,
        3.4231793880462646,
        1.475724458694458,
        1.5851162672042847,
        0.5540350079536438,
        0.7795805931091309,
        -0.09245496988296509,
        -0.07814880460500717,
        1.9743664264678955,
        1.0572706460952759,
        1.4293770790100098,
        -0.09980451315641403,
        0.39959511160850525,
        -0.6554065346717834,
        -0.10648341476917267,
        0.6939855813980103,
        1.0719976425170898,
        2.4418773651123047,
        0.3914634585380554,
        2.3999569416046143,
        1.66776442527771,
        2.841815233230591,
        -2.6839258670806885,
        0.2514004409313202,
        3.6491901874542236,
        2.2441959381103516,
        1.9644700288772583,
        -2.6222283840179443,
        -0.11343669891357422,
        -1.5325984954833984,
        -0.00971859972923994,
        -0.18204715847969055,
        0.5630372166633606,
        2.4609968662261963,
        0.5721268057823181,
        -0.27861908078193665,
        1.1151574850082397,
        1.4785096645355225,
        -1.7057019472122192,
        0.22265857458114624,
        3.5886809825897217,
        1.7296735048294067,
        1.0749945640563965,
        -0.4691806435585022,
        0.20355962216854095,
        -0.5049305558204651,
        -0.07126586884260178,
        0.011690428480505943,
        0.13923268020153046,
        2.7138755321502686,
        -0.7075726985931396,
        -0.18547047674655914,
        0.617615818977356,
        0.9752274751663208,
        -0.8795254826545715,
        -0.20276597142219543,
        1.999942421913147,
        1.2265465259552002,
        1.2967547178268433,
        0.09458602964878082,
        0.6171090602874756,
        0.588533878326416,
        -1.0177861452102661,
        0.39991995692253113,
        1.5574887990951538,
        0.6657140851020813,
        2.0029830932617188,
        0.24486206471920013,
        0.4262712001800537,
        -0.7925865054130554,
        -0.6081587076187134,
        1.6327521800994873,
        0.19871877133846283,
        2.6938552856445312,
        2.817453622817993,
        0.9257267117500305,
        -0.5730266571044922,
        -0.38962993025779724,
        0.9397343993186951,
        -0.029616765677928925,
        0.034865085035562515,
        -1.3982890844345093,
        -0.031127341091632843,
        0.019476013258099556,
        0.6572629809379578,
        -0.8962926864624023,
        -0.16702160239219666,
        0.18119780719280243,
        0.4228680729866028,
        2.46081280708313,
        0.19017954170703888,
        -0.37511011958122253,
        0.7699118256568909,
        0.2789217531681061,
        -1.5107109546661377,
        -0.26363474130630493,
        0.012516863644123077,
        -3.954979419708252,
        0.6306313872337341,
        -0.04079609364271164,
        0.14568084478378296,
        0.21620769798755646,
        -0.9460163712501526,
        -0.0886755883693695,
        -0.41503384709358215,
        -3.1850390434265137,
        1.1272757053375244,
        0.7779335975646973,
        0.21176505088806152,
        -0.5406321883201599,
        0.748675525188446,
        0.1989121437072754,
        0.248819038271904,
        2.0551912784576416,
        -0.167249858379364,
        -0.07502935081720352,
        0.4570952355861664,
        -0.20563220977783203,
        -0.6209244132041931,
        0.5634232759475708,
        0.487922340631485,
        2.236234664916992,
        1.3878611326217651,
        -0.3512081503868103,
        0.2826511561870575,
        -1.4054934978485107,
        -0.2796296179294586,
        0.6638084053993225,
        1.157855749130249,
        2.3247690200805664,
        1.3163189888000488,
        1.1292650699615479
      ]
    },
    {
      "activation": "rectified",
      "architecture": "dense",
      "bias": [],
      "weights": []
    },
    {
      "activation": "linear",
      "architecture": "dense",
      "bias": [
        0.9250071048736572
      ],
      "weights": [
        0.05440451204776764,
        -0.987142026424408,
        0.02519981749355793,
        -0.675917387008667,
        -0.28690987825393677,
        0.004581234883517027,
        0.005323219113051891,
        0.10429980605840683,
        -0.5781117677688599,
        -1.6572811603546143,
        -0.6917178630828857,
        0.043927017599344254,
        -0.602968156337738,
        0.029792048037052155,
        -0.02776828594505787,
        -0.1333823800086975,
        0.03335760161280632,
        -0.31624284386634827,
        0.03179873898625374,
        -1.166278600692749,
        0.017372220754623413,
        -1.5487273931503296,
        0.03425399214029312,
        0.007704387418925762,
        -0.22153040766716003,
        -1.4112379550933838,
        -1.4492892026901245,
        -0.09859826415777206,
        -0.32552534341812134,
        -1.603745460510254,
        -0.37881240248680115,
        -0.3845403790473938
      ]
    },
    {
      "activation": "sigmoid",
      "architecture": "dense",
      "bias": [],
      "weights": []
    }
  ],
  "nodes": [
    {
      "layer_index": 1,
      "sources": [
        2
      ],
      "type": "feed_forward"
    },
    {
      "layer_index": 3,
      "sources": [
        3
      ],
      "type": "feed_forward"
    },
    {
      "layer_index": 0,
      "sources": [
        4
      ],
      "type": "feed_forward"
    },
    {
      "layer_index": 2,
      "sources": [
        0
      ],
      "type": "feed_forward"
    },
    {
      "size": 8,
      "sources": [
        0
      ],
      "type": "input"
    }
  ],
  "outputs": {
    "activation_2_0": {
      "labels": [
        "out_0"
      ],
      "node_index": 1
    }
  }
}
